{"learner":{"attributes":{"scikit_learn":"{\"_estimator_type\": \"regressor\"}"},"feature_names":[],"feature_types":[],"gradient_booster":{"model":{"cats":{"enc":[],"feature_segments":[],"sorted_idx":[]},"gbtree_model_param":{"num_parallel_tree":"1","num_trees":"300"},"iteration_indptr":[0,1,2,3,4,5,6,7,8,9,10,11,12,13,14,15,16,17,18,19,20,21,22,23,24,25,26,27,28,29,30,31,32,33,34,35,36,37,38,39,40,41,42,43,44,45,46,47,48,49,50,51,52,53,54,55,56,57,58,59,60,61,62,63,64,65,66,67,68,69,70,71,72,73,74,75,76,77,78,79,80,81,82,83,84,85,86,87,88,89,90,91,92,93,94,95,96,97,98,99,100,101,102,103,104,105,106,107,108,109,110,111,112,113,114,115,116,117,118,119,120,121,122,123,124,125,126,127,128,129,130,131,132,133,134,135,136,137,138,139,140,141,142,143,144,145,146,147,148,149,150,151,152,153,154,155,156,157,158,159,160,161,162,163,164,165,166,167,168,169,170,171,172,173,174,175,176,177,178,179,180,181,182,183,184,185,186,187,188,189,190,191,192,193,194,195,196,197,198,199,200,201,202,203,204,205,206,207,208,209,210,211,212,213,214,215,216,217,218,219,220,221,222,223,224,225,226,227,228,229,230,231,232,233,234,235,236,237,238,239,240,241,242,243,244,245,246,247,248,249,250,251,252,253,254,255,256,257,258,259,260,261,262,263,264,265,266,267,268,269,270,271,272,273,274,275,276,277,278,279,280,281,282,283,284,285,286,287,288,289,290,291,292,293,294,295,296,297,298,299,300],"tree_info":[0,0,0,0,0,0,0,0,0,0,0,0,0,0,0,0,0,0,0,0,0,0,0,0,0,0,0,0,0,0,0,0,0,0,0,0,0,0,0,0,0,0,0,0,0,0,0,0,0,0,0,0,0,0,0,0,0,0,0,0,0,0,0,0,0,0,0,0,0,0,0,0,0,0,0,0,0,0,0,0,0,0,0,0,0,0,0,0,0,0,0,0,0,0,0,0,0,0,0,0,0,0,0,0,0,0,0,0,0,0,0,0,0,0,0,0,0,0,0,0,0,0,0,0,0,0,0,0,0,0,0,0,0,0,0,0,0,0,0,0,0,0,0,0,0,0,0,0,0,0,0,0,0,0,0,0,0,0,0,0,0,0,0,0,0,0,0,0,0,0,0,0,0,0,0,0,0,0,0,0,0,0,0,0,0,0,0,0,0,0,0,0,0,0,0,0,0,0,0,0,0,0,0,0,0,0,0,0,0,0,0,0,0,0,0,0,0,0,0,0,0,0,0,0,0,0,0,0,0,0,0,0,0,0,0,0,0,0,0,0,0,0,0,0,0,0,0,0,0,0,0,0,0,0,0,0,0,0,0,0,0,0,0,0,0,0,0,0,0,0,0,0,0,0,0,0,0,0,0,0,0,0,0,0,0,0,0,0,0,0,0,0,0,0,0,0,0,0,0,0],"trees":[{"base_weights":[3.3963583E-3,-3.1516904E-1,1.16671994E-1,-3.9524087E-1,4.967763E-3,-1.12538815E-1,1.6399717E-1,-5.66788E-1,-3.0599013E-1,-2.296288E-1,9.860768E-2,-2.7450858E-2,-5.641598E-2,-1.4688823E-1,1.7699762E-1,-2.9187802E-2,4.0708827E-3,-1.8972635E-2,-2.5021075E-3,-1.709414E-2,7.312909E-3,-1.0404018E-2,6.716159E-3,-9.950371E-3,5.906585E-3,5.7512807E-4,-2.06395E-2,4.1676345E-3,1.0147786E-2],"categories":[],"categories_nodes":[],"categories_segments":[],"categories_sizes":[],"default_left":[0,0,1,0,0,0,0,0,0,0,0,0,0,0,0,0,0,0,0,0,0,0,0,0,0,0,0,0,0],"id":0,"left_children":[1,3,5,7,9,11,13,15,17,19,21,-1,23,25,27,-1,-1,-1,-1,-1,-1,-1,-1,-1,-1,-1,-1,-1,-1],"loss_changes":[2.269859E1,4.2315636E0,5.0516686E0,1.8475819E0,7.695417E-1,1.9287387E0,1.5820351E0,5.3147316E-1,1.6544428E0,4.7195137E-1,3.017879E-1,0E0,1.8155177E0,6.786103E-1,8.824949E-1,0E0,0E0,0E0,0E0,0E0,0E0,0E0,0E0,0E0,0E0,0E0,0E0,0E0,0E0],"parents":[2147483647,0,0,1,1,2,2,3,3,4,4,5,5,6,6,7,7,8,8,9,9,10,10,12,12,13,13,14,14],"right_children":[2,4,6,8,10,12,14,16,18,20,22,-1,24,26,28,-1,-1,-1,-1,-1,-1,-1,-1,-1,-1,-1,-1,-1,-1],"split_conditions":[-5.1241285E-1,5.3089815E-1,-5.565589E-1,-3.6408696E-1,-3.6408696E-1,-2.8329337E0,-2.430914E0,1.5686698E0,-6.122551E-1,5.918564E-1,-1.0384754E0,-2.7450858E-2,-1.1392811E-1,1.287392E0,-2.659963E-1,-2.9187802E-2,4.0708827E-3,-1.8972635E-2,-2.5021075E-3,-1.709414E-2,7.312909E-3,-1.0404018E-2,6.716159E-3,-9.950371E-3,5.906585E-3,5.7512807E-4,-2.06395E-2,4.1676345E-3,1.0147786E-2],"split_indices":[7,2,2,5,5,1,1,6,7,1,1,0,8,6,7,0,0,0,0,0,0,0,0,0,0,0,0,0,0],"split_type":[0,0,0,0,0,0,0,0,0,0,0,0,0,0,0,0,0,0,0,0,0,0,0,0,0,0,0,0,0],"sum_hessian":[6.27E2,1.64E2,4.63E2,1.31E2,3.3E1,7.9E1,3.84E2,4.3E1,8.8E1,9E0,2.4E1,8E0,7.1E1,1.5E1,3.69E2,4.2E1,1E0,6.8E1,2E1,7E0,2E0,2E0,2.2E1,3.9E1,3.2E1,1E1,5E0,8.1E1,2.88E2],"tree_param":{"num_deleted":"0","num_feature":"9","num_nodes":"29","size_leaf_vector":"1"}},{"base_weights":[-3.057405E-3,9.880619E-2,-6.473683E-1,-1.01264074E-1,1.5446241E-1,-2.6077804E-1,-3.694179E-2,-3.939951E-1,-4.8612878E-2,-3.6442343E-2,1.81686E-1,8.375897E-2,-3.6519998E-1,4.7745453E-3,-2.1420276E-2,9.607102E-3,-9.430701E-3,-2.1882713E-2,2.6762846E-3,1.0507989E-2,4.746882E-3,4.9750544E-3,5.197629E-4,5.1470925E-3,-2.2590106E-2],"categories":[],"categories_nodes":[],"categories_segments":[],"categories_sizes":[],"default_left":[0,0,0,0,0,0,0,0,0,0,0,0,0,0,0,0,0,0,0,0,0,0,0,0,0],"id":1,"left_children":[1,3,5,7,9,11,-1,13,15,17,19,21,23,-1,-1,-1,-1,-1,-1,-1,-1,-1,-1,-1,-1],"loss_changes":[4.134638E1,6.073166E0,2.8483238E0,1.8149508E0,2.2205906E0,6.781788E-1,0E0,3.4409022E-1,3.474249E0,1.9726231E0,9.0137863E-1,4.74016E-3,6.140984E-1,0E0,0E0,0E0,0E0,0E0,0E0,0E0,0E0,0E0,0E0,0E0,0E0],"parents":[2147483647,0,0,1,1,2,2,3,3,4,4,5,5,7,7,8,8,9,9,10,10,11,11,12,12],"right_children":[2,4,6,8,10,12,-1,14,16,18,20,22,24,-1,-1,-1,-1,-1,-1,-1,-1,-1,-1,-1,-1],"split_conditions":[2.0483258E0,-3.7707356E-1,-3.3322808E-1,-1.9193258E0,-1.0144247E0,7.194204E-1,-3.694179E-2,5.475423E-1,3.842705E-1,-5.1241285E-1,3.842705E-1,-3.8196394E-1,-7.233901E-1,4.7745453E-3,-2.1420276E-2,9.607102E-3,-9.430701E-3,-2.1882713E-2,2.6762846E-3,1.0507989E-2,4.746882E-3,4.9750544E-3,5.197629E-4,5.1470925E-3,-2.2590106E-2],"split_indices":[0,2,1,1,1,3,0,6,0,7,0,1,7,0,0,0,0,0,0,0,0,0,0,0,0],"split_type":[0,0,0,0,0,0,0,0,0,0,0,0,0,0,0,0,0,0,0,0,0,0,0,0,0],"sum_hessian":[6.28E2,5.43E2,8.5E1,1.18E2,4.25E2,1.7E1,6.8E1,1.7E1,1.01E2,5.3E1,3.72E2,4E0,1.3E1,1E0,1.6E1,3.7E1,6.4E1,9E0,4.4E1,2.79E2,9.3E1,3E0,1E0,2E0,1.1E1],"tree_param":{"num_deleted":"0","num_feature":"9","num_nodes":"25","size_leaf_vector":"1"}},{"base_weights":[-1.9947518E-4,9.8798424E-2,-6.267956E-1,-2.0875695E-1,1.252623E-1,-1.0519459E-1,-6.8718E-1,-3.0575433E-1,9.582517E-3,1.8963183E-1,-5.0161583E-3,1.1218011E-2,-1.9028168E-2,-3.531659E-2,-1.6586491E-1,-8.522091E-3,-2.6081694E-2,2.2304442E-3,9.988994E-3,-2.1885019E-2,1.5890322E-3,-4.1651228E-3,6.328204E-3,-1.8845906E-2,1.506276E-3],"categories":[],"categories_nodes":[],"categories_segments":[],"categories_sizes":[],"default_left":[0,0,0,0,0,0,0,0,0,0,0,0,0,0,0,0,0,0,0,0,0,0,0,0,0],"id":2,"left_children":[1,3,5,7,9,11,13,15,-1,17,19,21,-1,-1,23,-1,-1,-1,-1,-1,-1,-1,-1,-1,-1],"loss_changes":[3.864565E1,4.4049892E0,2.6049194E0,1.7286518E0,4.1603885E0,3.2483307E-1,6.416397E-1,9.334836E-1,0E0,4.7969246E-1,2.6409407E0,9.7763605E-2,0E0,0E0,1.7681247E-1,0E0,0E0,0E0,0E0,0E0,0E0,0E0,0E0,0E0,0E0],"parents":[2147483647,0,0,1,1,2,2,3,3,4,4,5,5,6,6,7,7,9,9,10,10,11,11,14,14],"right_children":[2,4,6,8,10,12,14,16,-1,18,20,22,-1,-1,24,-1,-1,-1,-1,-1,-1,-1,-1,-1,-1],"split_conditions":[2.0483258E0,-1.7967577E0,-1.7967577E0,7.483326E-1,3.842705E-1,-2.901562E-1,8.1123227E-1,1.1659939E0,9.582517E-3,-1.0144247E0,-3.1184287E0,-5.079595E-1,-1.9028168E-2,-3.531659E-2,-9.3771344E-1,-8.522091E-3,-2.6081694E-2,2.2304442E-3,9.988994E-3,-2.1885019E-2,1.5890322E-3,-4.1651228E-3,6.328204E-3,-1.8845906E-2,1.506276E-3],"split_indices":[0,1,1,2,0,7,2,4,0,1,2,8,0,0,1,0,0,0,0,0,0,0,0,0,0],"split_type":[0,0,0,0,0,0,0,0,0,0,0,0,0,0,0,0,0,0,0,0,0,0,0,0,0],"sum_hessian":[6.21E2,5.37E2,8.4E1,4.2E1,4.95E2,9E0,7.5E1,3.4E1,8E0,3.31E2,1.64E2,7E0,2E0,7.2E1,3E0,2.2E1,1.2E1,2.2E1,3.09E2,1.2E1,1.52E2,4E0,3E0,1E0,2E0],"tree_param":{"num_deleted":"0","num_feature":"9","num_nodes":"25","size_leaf_vector":"1"}},{"base_weights":[9.580594E-4,9.103456E-2,-5.911419E-1,-1.3893066E-1,1.3141833E-1,-2.574386E-1,-3.3406954E-2,-3.3911148E-1,-2.076999E-2,-7.691667E-2,1.6055897E-1,-9.304613E-2,-2.7165858E-2,-2.147839E-3,-2.0568015E-2,-2.3462748E-2,2.3964623E-3,-2.32774E-2,2.8253076E-4,9.475024E-3,3.9875563E-3,4.2537707E-3,-9.637067E-3],"categories":[],"categories_nodes":[],"categories_segments":[],"categories_sizes":[],"default_left":[0,0,0,0,0,0,0,0,0,0,0,0,0,0,0,0,0,0,0,0,0,0,0],"id":3,"left_children":[1,3,5,7,9,11,-1,13,15,17,19,21,-1,-1,-1,-1,-1,-1,-1,-1,-1,-1,-1],"loss_changes":[3.3121075E1,5.023876E0,1.9349174E0,1.9088901E0,2.798945E0,7.483833E-1,0E0,6.242342E-1,1.6246408E0,1.83166E0,9.273844E-1,2.2949192E-1,0E0,0E0,0E0,0E0,0E0,0E0,0E0,0E0,0E0,0E0,0E0],"parents":[2147483647,0,0,1,1,2,2,3,3,4,4,5,5,7,7,8,8,9,9,10,10,11,11],"right_children":[2,4,6,8,10,12,-1,14,16,18,20,22,-1,-1,-1,-1,-1,-1,-1,-1,-1,-1,-1],"split_conditions":[2.0483258E0,-8.634825E-1,-3.3322808E-1,-4.4719034E-1,-1.0144247E0,-3.8035274E-1,-3.3406954E-2,-7.495633E-1,-2.8329337E0,-5.1241285E-1,3.842705E-1,8.1763726E-1,-2.7165858E-2,-2.147839E-3,-2.0568015E-2,-2.3462748E-2,2.3964623E-3,-2.32774E-2,2.8253076E-4,9.475024E-3,3.9875563E-3,4.2537707E-3,-9.637067E-3],"split_indices":[0,2,1,7,1,7,0,7,1,7,0,4,0,0,0,0,0,0,0,0,0,0,0],"split_type":[0,0,0,0,0,0,0,0,0,0,0,0,0,0,0,0,0,0,0,0,0,0,0],"sum_hessian":[6.19E2,5.38E2,8.1E1,8E1,4.58E2,1.6E1,6.5E1,2.9E1,5.1E1,5.6E1,4.02E2,1.1E1,5E0,6E0,2.3E1,6E0,4.5E1,9E0,4.7E1,2.95E2,1.07E2,4E0,7E0],"tree_param":{"num_deleted":"0","num_feature":"9","num_nodes":"23","size_leaf_vector":"1"}},{"base_weights":[-5.5886297E-3,8.2673304E-2,-5.628054E-1,-2.3930532E-1,1.0944707E-1,-8.140777E-2,-6.1113584E-1,-3.280809E-1,8.950051E-3,1.7271017E-1,-1.8492127E-2,4.523315E-2,-1.7488366E-2,-3.1885E-2,-1.8608242E-1,-1.1800337E-2,-2.424446E-2,1.3114298E-3,9.045954E-3,-1.0150939E-2,2.773632E-3,-2.7134947E-3,6.671395E-3,-2.325656E-2,3.4862391E-3],"categories":[],"categories_nodes":[],"categories_segments":[],"categories_sizes":[],"default_left":[0,0,0,0,0,0,0,0,0,0,0,0,0,0,0,0,0,0,0,0,0,0,0,0,0],"id":4,"left_children":[1,3,5,7,9,11,13,15,-1,17,19,21,-1,-1,23,-1,-1,-1,-1,-1,-1,-1,-1,-1,-1],"loss_changes":[3.0932215E1,4.7071657E0,1.9511395E0,1.6184132E0,4.0662956E0,3.2168877E-1,7.620449E-1,3.908925E-1,0E0,3.9928055E-1,2.2905567E0,6.8670645E-2,0E0,0E0,4.6072733E-1,0E0,0E0,0E0,0E0,0E0,0E0,0E0,0E0,0E0,0E0],"parents":[2147483647,0,0,1,1,2,2,3,3,4,4,5,5,6,6,7,7,9,9,10,10,11,11,14,14],"right_children":[2,4,6,8,10,12,14,16,-1,18,20,22,-1,-1,24,-1,-1,-1,-1,-1,-1,-1,-1,-1,-1],"split_conditions":[2.0483258E0,-1.7967577E0,-1.7967577E0,7.483326E-1,3.842705E-1,-2.901562E-1,7.19991E-1,1.1659939E0,8.950051E-3,-1.0144247E0,-7.0117104E-1,-5.079595E-1,-1.7488366E-2,-3.1885E-2,-6.4349467E-1,-1.1800337E-2,-2.424446E-2,1.3114298E-3,9.045954E-3,-1.0150939E-2,2.773632E-3,-2.7134947E-3,6.671395E-3,-2.325656E-2,3.4862391E-3],"split_indices":[0,1,1,2,0,7,2,4,0,1,2,8,0,0,1,0,0,0,0,0,0,0,0,0,0],"split_type":[0,0,0,0,0,0,0,0,0,0,0,0,0,0,0,0,0,0,0,0,0,0,0,0,0],"sum_hessian":[6.27E2,5.42E2,8.5E1,4.1E1,5.01E2,8E0,7.7E1,3.4E1,7E0,3.35E2,1.66E2,6E0,2E0,7.2E1,5E0,2.3E1,1.1E1,1.8E1,3.17E2,4.7E1,1.19E2,3E0,3E0,2E0,3E0],"tree_param":{"num_deleted":"0","num_feature":"9","num_nodes":"25","size_leaf_vector":"1"}},{"base_weights":[-3.007235E-4,7.967987E-2,-5.2778816E-1,-1.4305887E-1,1.17574714E-1,-8.6496815E-2,-5.7958984E-1,-2.1250512E-1,1.11808896E-1,-4.9243584E-2,1.4095141E-1,-2.2259983E-1,4.1338503E-2,-3.0277714E-2,-1.8007335E-1,-1.5770165E-2,-2.990747E-3,-2.9001937E-3,9.079167E-3,-1.9337004E-2,9.6202915E-4,8.528218E-3,3.097979E-3,3.3044114E-3,-1.5564695E-2,-4.427775E-3,6.421219E-3,-2.2481343E-2,3.355506E-3],"categories":[],"categories_nodes":[],"categories_segments":[],"categories_sizes":[],"default_left":[0,0,0,0,0,0,0,0,0,0,0,0,0,0,0,0,0,0,0,0,0,0,0,0,0,0,0,0,0],"id":5,"left_children":[1,3,5,7,9,11,13,15,17,19,21,23,25,-1,27,-1,-1,-1,-1,-1,-1,-1,-1,-1,-1,-1,-1,-1,-1],"loss_changes":[2.6916294E1,4.69294E0,1.8700771E0,1.4574285E0,1.8553805E0,1.8318968E-1,6.689472E-1,9.866724E-1,2.2380716E-1,1.3711178E0,9.6253014E-1,1.4859743E-1,7.9244286E-2,0E0,4.2994958E-1,0E0,0E0,0E0,0E0,0E0,0E0,0E0,0E0,0E0,0E0,0E0,0E0,0E0,0E0],"parents":[2147483647,0,0,1,1,2,2,3,3,4,4,5,5,6,6,7,7,8,8,9,9,10,10,11,11,12,12,14,14],"right_children":[2,4,6,8,10,12,14,16,18,20,22,24,26,-1,28,-1,-1,-1,-1,-1,-1,-1,-1,-1,-1,-1,-1,-1,-1],"split_conditions":[2.0483258E0,-8.634825E-1,-1.7967577E0,3.3187753E-1,-1.0144247E0,1.7156599E0,7.19991E-1,-1.1392811E-1,-6.471704E-1,-4.1459075E-1,3.842705E-1,-2.9350402E0,-5.079595E-1,-3.0277714E-2,-6.4349467E-1,-1.5770165E-2,-2.990747E-3,-2.9001937E-3,9.079167E-3,-1.9337004E-2,9.6202915E-4,8.528218E-3,3.097979E-3,3.3044114E-3,-1.5564695E-2,-4.427775E-3,6.421219E-3,-2.2481343E-2,3.355506E-3],"split_indices":[0,2,1,1,1,4,2,8,8,8,0,2,8,0,1,0,0,0,0,0,0,0,0,0,0,0,0,0,0],"split_type":[0,0,0,0,0,0,0,0,0,0,0,0,0,0,0,0,0,0,0,0,0,0,0,0,0,0,0,0,0],"sum_hessian":[6.36E2,5.53E2,8.3E1,8E1,4.73E2,9E0,7.4E1,6.3E1,1.7E1,5.8E1,4.15E2,4E0,5E0,6.9E1,5E0,3.7E1,2.6E1,5E0,1.2E1,9E0,4.9E1,3.01E2,1.14E2,1E0,3E0,2E0,3E0,2E0,3E0],"tree_param":{"num_deleted":"0","num_feature":"9","num_nodes":"29","size_leaf_vector":"1"}},{"base_weights":[8.4582315E-4,7.5151004E-2,-4.9911922E-1,-1.1368486E-1,1.1476133E-1,-8.319865E-2,-5.4995376E-1,-1.7559321E-1,8.774968E-2,-5.7394855E-2,1.3637032E-1,1.890117E-2,-1.6386598E-2,-2.8769497E-2,-1.7425732E-1,-1.284201E-2,-2.1732692E-3,-4.7861054E-3,8.700062E-3,-8.657038E-3,6.5334174E-3,8.1143975E-3,3.135502E-3,-3.4322452E-3,6.180424E-3,-2.1731965E-2,3.2296747E-3],"categories":[],"categories_nodes":[],"categories_segments":[],"categories_sizes":[],"default_left":[0,0,0,0,0,0,0,0,0,0,0,0,0,0,0,0,0,0,0,0,0,0,0,0,0,0,0],"id":6,"left_children":[1,3,5,7,9,11,13,15,17,19,21,23,-1,-1,25,-1,-1,-1,-1,-1,-1,-1,-1,-1,-1,-1,-1],"loss_changes":[2.3256256E1,4.0895643E0,1.6668377E0,1.200104E0,1.6856012E0,2.5586262E-1,5.877857E-1,7.7249026E-1,3.806244E-1,1.1327689E0,7.553725E-1,8.18188E-2,0E0,0E0,4.0122962E-1,0E0,0E0,0E0,0E0,0E0,0E0,0E0,0E0,0E0,0E0,0E0,0E0],"parents":[2147483647,0,0,1,1,2,2,3,3,4,4,5,5,6,6,7,7,8,8,9,9,10,10,11,11,14,14],"right_children":[2,4,6,8,10,12,14,16,18,20,22,24,-1,-1,26,-1,-1,-1,-1,-1,-1,-1,-1,-1,-1,-1,-1],"split_conditions":[2.0483258E0,-6.818654E-1,-1.7967577E0,3.3187753E-1,-1.0144247E0,-2.901562E-1,7.19991E-1,-1.1392811E-1,-5.695568E-1,7.483326E-1,3.842705E-1,-5.079595E-1,-1.6386598E-2,-2.8769497E-2,-6.4349467E-1,-1.284201E-2,-2.1732692E-3,-4.7861054E-3,8.700062E-3,-8.657038E-3,6.5334174E-3,8.1143975E-3,3.135502E-3,-3.4322452E-3,6.180424E-3,-2.1731965E-2,3.2296747E-3],"split_indices":[0,2,1,1,1,7,2,8,7,2,0,8,0,0,1,0,0,0,0,0,0,0,0,0,0,0,0],"split_type":[0,0,0,0,0,0,0,0,0,0,0,0,0,0,0,0,0,0,0,0,0,0,0,0,0,0,0],"sum_hessian":[6.24E2,5.44E2,8E1,9.4E1,4.5E2,9E0,7.1E1,7.2E1,2.2E1,5E1,4E2,7E0,2E0,6.6E1,5E0,4.4E1,2.8E1,7E0,1.5E1,3.1E1,1.9E1,2.95E2,1.05E2,4E0,3E0,2E0,3E0],"tree_param":{"num_deleted":"0","num_feature":"9","num_nodes":"27","size_leaf_vector":"1"}},{"base_weights":[-2.2356927E-3,7.364281E-2,-4.7953844E-1,-1.2736163E-1,1.10347465E-1,-5.1062775E-1,-1.1258904E-1,-3.2036522E-1,-4.933789E-2,1.2193957E-1,-5.90979E-2,-5.3263897E-1,-7.833394E-2,-1.8777644E-2,3.765772E-2,1.5463978E-4,-1.833604E-2,1.659406E-3,-1.7830113E-2,-3.7598496E-4,6.414424E-3,-1.9570688E-2,5.0980966E-3,-7.695105E-3,-2.7045354E-2,3.1085617E-3,-1.6008867E-2,-4.165773E-3,5.9486586E-3],"categories":[],"categories_nodes":[],"categories_segments":[],"categories_sizes":[],"default_left":[0,0,0,0,0,1,0,0,0,0,0,0,0,0,0,0,0,0,0,0,0,0,0,0,0,0,0,0,0],"id":7,"left_children":[1,3,5,7,9,11,13,15,17,19,21,23,25,-1,27,-1,-1,-1,-1,-1,-1,-1,-1,-1,-1,-1,-1,-1,-1],"loss_changes":[2.270717E1,4.0054426E0,9.236145E-1,1.2491384E0,9.068227E-1,7.0998764E-1,3.3021817E-1,3.6099195E-1,1.5586303E0,3.5357094E-1,1.6455913E0,1.5161133E-1,1.8980704E-1,0E0,6.8934225E-2,0E0,0E0,0E0,0E0,0E0,0E0,0E0,0E0,0E0,0E0,0E0,0E0,0E0,0E0],"parents":[2147483647,0,0,1,1,2,2,3,3,4,4,5,5,6,6,7,7,8,8,9,9,10,10,11,11,12,12,14,14],"right_children":[2,4,6,8,10,12,14,16,18,20,22,24,26,-1,28,-1,-1,-1,-1,-1,-1,-1,-1,-1,-1,-1,-1,-1,-1],"split_conditions":[2.0483258E0,-7.3230624E-1,1.7156599E0,-5.326599E-1,1.3365872E0,8.0608165E-1,4.231364E-1,-8.196916E-1,1.1659939E0,-9.136671E-1,5.335248E-1,-2.9350402E0,1.2540697E0,-1.8777644E-2,-5.079595E-1,1.5463978E-4,-1.833604E-2,1.659406E-3,-1.7830113E-2,-3.7598496E-4,6.414424E-3,-1.9570688E-2,5.0980966E-3,-7.695105E-3,-2.7045354E-2,3.1085617E-3,-1.6008867E-2,-4.165773E-3,5.9486586E-3],"split_indices":[0,2,4,7,0,2,5,7,4,8,2,2,3,0,8,0,0,0,0,0,0,0,0,0,0,0,0,0,0],"split_type":[0,0,0,0,0,0,0,0,0,0,0,0,0,0,0,0,0,0,0,0,0,0,0,0,0,0,0,0,0],"sum_hessian":[6.25E2,5.4E2,8.5E1,8.3E1,4.57E2,7.8E1,7E0,2.3E1,6E1,4.28E2,2.9E1,7.4E1,4E0,2E0,5E0,3E0,2E1,4.8E1,1.2E1,2E1,4.08E2,9E0,2E1,2E0,7.2E1,3E0,1E0,2E0,3E0],"tree_param":{"num_deleted":"0","num_feature":"9","num_nodes":"29","size_leaf_vector":"1"}},{"base_weights":[-5.0317273E-3,6.7653306E-2,-4.6981937E-1,-8.091805E-2,1.1019215E-1,-4.9408665E-1,2.212801E-2,-2.037062E-1,-4.918562E-3,1.2225811E-1,-6.65451E-2,-5.073285E-1,-1.09038085E-1,-4.0269135E-3,5.8709146E-3,-2.069045E-2,-7.499885E-3,5.4645543E-3,-6.2504904E-3,1.131321E-3,6.3440735E-3,-1.3702578E-2,6.578197E-3,-7.4386024E-3,-2.573548E-2,3.1365573E-3,-1.5608645E-2],"categories":[],"categories_nodes":[],"categories_segments":[],"categories_sizes":[],"default_left":[0,0,0,0,0,1,0,0,0,0,0,0,0,0,0,0,0,0,0,0,0,0,0,0,0,0,0],"id":8,"left_children":[1,3,5,7,9,11,13,15,17,19,21,23,25,-1,-1,-1,-1,-1,-1,-1,-1,-1,-1,-1,-1,-1,-1],"loss_changes":[2.1484058E1,3.4849458E0,1.0376225E0,1.1468139E0,9.208479E-1,3.6277962E-1,5.8372162E-2,4.6829212E-1,1.069762E0,1.818428E-1,1.1871046E0,1.324997E-1,1.591522E-1,0E0,0E0,0E0,0E0,0E0,0E0,0E0,0E0,0E0,0E0,0E0,0E0,0E0,0E0],"parents":[2147483647,0,0,1,1,2,2,3,3,4,4,5,5,6,6,7,7,8,8,9,9,10,10,11,11,12,12],"right_children":[2,4,6,8,10,12,14,16,18,20,22,24,26,-1,-1,-1,-1,-1,-1,-1,-1,-1,-1,-1,-1,-1,-1],"split_conditions":[2.0483258E0,-3.7707356E-1,1.7156599E0,-3.877967E-1,1.3365872E0,8.0608165E-1,-5.079595E-1,-3.1184287E0,9.816803E-1,-9.136671E-1,7.483326E-1,-2.9350402E0,8.1550264E-1,-4.0269135E-3,5.8709146E-3,-2.069045E-2,-7.499885E-3,5.4645543E-3,-6.2504904E-3,1.131321E-3,6.3440735E-3,-1.3702578E-2,6.578197E-3,-7.4386024E-3,-2.573548E-2,3.1365573E-3,-1.5608645E-2],"split_indices":[0,2,4,8,0,2,8,2,5,8,2,2,2,0,0,0,0,0,0,0,0,0,0,0,0,0,0],"split_type":[0,0,0,0,0,0,0,0,0,0,0,0,0,0,0,0,0,0,0,0,0,0,0,0,0,0,0],"sum_hessian":[6.34E2,5.49E2,8.5E1,1.22E2,4.27E2,8.1E1,4E0,4.6E1,7.6E1,4E2,2.7E1,7.8E1,3E0,2E0,2E0,8E0,3.8E1,3.9E1,3.7E1,1.8E1,3.82E2,1.3E1,1.4E1,2E0,7.6E1,2E0,1E0],"tree_param":{"num_deleted":"0","num_feature":"9","num_nodes":"27","size_leaf_vector":"1"}},{"base_weights":[-2.2991167E-3,6.3457154E-2,-4.38798E-1,-1.923188E-1,8.548606E-2,-2.3602989E-2,-2.4138538E-2,-8.892111E-2,-4.0753376E-1,1.3696177E-1,-1.7665425E-2,2.4404787E-2,-1.019163E-2,-2.0708585E-2,2.8529478E-4,4.61801E-3,-2.2654591E-2,1.5834818E-4,7.267012E-3,3.934227E-6,-1.1598286E-2,-2.4519558E-3,5.5054235E-3],"categories":[],"categories_nodes":[],"categories_segments":[],"categories_sizes":[],"default_left":[0,0,0,0,0,0,0,0,0,0,0,0,0,0,0,0,0,0,0,0,0,0,0],"id":9,"left_children":[1,3,5,7,9,11,-1,13,15,17,19,21,-1,-1,-1,-1,-1,-1,-1,-1,-1,-1,-1],"loss_changes":[1.8196552E1,3.1210308E0,1.5039606E0,9.428817E-1,2.6997957E0,8.284629E-2,0E0,9.5646536E-1,3.6068606E-1,3.795576E-1,6.464548E-1,5.5754922E-2,0E0,0E0,0E0,0E0,0E0,0E0,0E0,0E0,0E0,0E0,0E0],"parents":[2147483647,0,0,1,1,2,2,3,3,4,4,5,5,7,7,8,8,9,9,10,10,11,11],"right_children":[2,4,6,8,10,12,-1,14,16,18,20,22,-1,-1,-1,-1,-1,-1,-1,-1,-1,-1,-1],"split_conditions":[2.0483258E0,-1.7967577E0,-1.7967577E0,1.1659939E0,3.842705E-1,-2.901562E-1,-2.4138538E-2,-5.1241285E-1,4.231364E-1,-1.0144247E0,1.4149206E0,-5.079595E-1,-1.019163E-2,-2.0708585E-2,2.8529478E-4,4.61801E-3,-2.2654591E-2,1.5834818E-4,7.267012E-3,3.934227E-6,-1.1598286E-2,-2.4519558E-3,5.5054235E-3],"split_indices":[0,1,1,4,0,7,0,7,5,1,5,8,0,0,0,0,0,0,0,0,0,0,0],"split_type":[0,0,0,0,0,0,0,0,0,0,0,0,0,0,0,0,0,0,0,0,0,0,0],"sum_hessian":[6.32E2,5.5E2,8.2E1,4.3E1,5.07E2,8E0,7.4E1,3E1,1.3E1,3.38E2,1.69E2,7E0,1E0,6E0,2.4E1,1E0,1.2E1,2E1,3.18E2,1.57E2,1.2E1,4E0,3E0],"tree_param":{"num_deleted":"0","num_feature":"9","num_nodes":"23","size_leaf_vector":"1"}},{"base_weights":[-8.425114E-3,5.9459567E-2,-4.1486603E-1,-8.758124E-2,9.199766E-2,-6.35948E-2,-4.5407927E-1,-4.2532387E-1,-4.3363214E-2,-2.938823E-1,1.0467146E-1,2.3566224E-2,-1.3741297E-2,-2.3672715E-2,-1.3944076E-1,5.2036846E-4,-2.616547E-2,-1.301895E-2,1.53777E-3,-2.0775063E-2,-5.6453045E-3,-1.1449028E-2,5.627701E-3,-2.3538775E-3,5.2989693E-3,-1.9295914E-2,4.0138788E-3],"categories":[],"categories_nodes":[],"categories_segments":[],"categories_sizes":[],"default_left":[0,0,0,0,0,0,0,0,0,0,0,0,0,0,0,0,0,0,0,0,0,0,0,0,0,0,0],"id":10,"left_children":[1,3,5,7,9,11,13,15,17,19,21,23,-1,-1,25,-1,-1,-1,-1,-1,-1,-1,-1,-1,-1,-1,-1],"loss_changes":[1.696561E1,2.529451E0,1.1832771E0,1.4152505E0,2.1434858E0,1.9058782E-1,4.1557503E-1,4.7509527E-1,1.3913101E0,2.6122928E-1,1.1277556E0,5.1565062E-2,0E0,0E0,3.559144E-1,0E0,0E0,0E0,0E0,0E0,0E0,0E0,0E0,0E0,0E0,0E0,0E0],"parents":[2147483647,0,0,1,1,2,2,3,3,4,4,5,5,6,6,7,7,8,8,9,9,10,10,11,11,14,14],"right_children":[2,4,6,8,10,12,14,16,18,20,22,24,-1,-1,26,-1,-1,-1,-1,-1,-1,-1,-1,-1,-1,-1,-1],"split_conditions":[2.0483258E0,-5.1241285E-1,-1.7967577E0,-1.0384754E0,-2.8329337E0,-2.901562E-1,7.19991E-1,-2.974018E0,-9.037151E-1,-2.6740974E-1,-3.1184287E0,-5.079595E-1,-1.3741297E-2,-2.3672715E-2,-6.4349467E-1,5.2036846E-4,-2.616547E-2,-1.301895E-2,1.53777E-3,-2.0775063E-2,-5.6453045E-3,-1.1449028E-2,5.627701E-3,-2.3538775E-3,5.2989693E-3,-1.9295914E-2,4.0138788E-3],"split_indices":[0,7,1,1,1,7,2,1,2,2,2,8,0,0,1,0,0,0,0,0,0,0,0,0,0,0,0],"split_type":[0,0,0,0,0,0,0,0,0,0,0,0,0,0,0,0,0,0,0,0,0,0,0,0,0,0,0],"sum_hessian":[6.13E2,5.26E2,8.7E1,9.5E1,4.31E2,9E0,7.8E1,1E1,8.5E1,1.3E1,4.18E2,7E0,2E0,7.3E1,5E0,2E0,8E0,2.1E1,6.4E1,7E0,6E0,9E0,4.09E2,4E0,3E0,2E0,3E0],"tree_param":{"num_deleted":"0","num_feature":"9","num_nodes":"27","size_leaf_vector":"1"}},{"base_weights":[-8.098181E-4,6.276696E-2,-3.985249E-1,-1.7442648E-1,8.1654675E-2,-1.743009E-1,-2.2364305E-2,-2.4769899E-1,7.481297E-3,-3.5634798E-1,9.225791E-2,-5.140991E-2,-1.9551637E-2,-7.464035E-3,-2.0374548E-2,-1.0403544E-4,-2.3710294E-2,-8.262652E-4,5.7785525E-3,4.6131248E-3,-6.738947E-3],"categories":[],"categories_nodes":[],"categories_segments":[],"categories_sizes":[],"default_left":[0,0,0,0,0,0,0,0,0,0,0,0,0,0,0,0,0,0,0,0,0],"id":11,"left_children":[1,3,5,7,9,11,-1,13,-1,15,17,19,-1,-1,-1,-1,-1,-1,-1,-1,-1],"loss_changes":[1.5777845E1,2.4245057E0,8.623133E-1,9.868275E-1,2.3503535E0,4.3268162E-1,0E0,4.5814252E-1,0E0,5.0005174E-1,1.2395163E0,1.5616897E-1,0E0,0E0,0E0,0E0,0E0,0E0,0E0,0E0,0E0],"parents":[2147483647,0,0,1,1,2,2,3,3,4,4,5,5,7,7,9,9,10,10,11,11],"right_children":[2,4,6,8,10,12,-1,14,-1,16,18,20,-1,-1,-1,-1,-1,-1,-1,-1,-1],"split_conditions":[2.0483258E0,-1.7967577E0,-3.3322808E-1,7.483326E-1,-3.1184287E0,-3.8035274E-1,-2.2364305E-2,1.1659939E0,7.481297E-3,-3.7775075E0,-5.326599E-1,8.1763726E-1,-1.9551637E-2,-7.464035E-3,-2.0374548E-2,-1.0403544E-4,-2.3710294E-2,-8.262652E-4,5.7785525E-3,4.6131248E-3,-6.738947E-3],"split_indices":[0,1,1,2,2,7,0,4,0,2,7,4,0,0,0,0,0,0,0,0,0],"split_type":[0,0,0,0,0,0,0,0,0,0,0,0,0,0,0,0,0,0,0,0,0],"sum_hessian":[6.22E2,5.37E2,8.5E1,3.9E1,4.98E2,1.6E1,6.9E1,3.2E1,7E0,1.1E1,4.87E2,1.1E1,5E0,2.1E1,1.1E1,3E0,8E0,8.6E1,4.01E2,4E0,7E0],"tree_param":{"num_deleted":"0","num_feature":"9","num_nodes":"21","size_leaf_vector":"1"}},{"base_weights":[-8.99221E-3,4.919995E-2,-3.795138E-1,-9.707668E-2,8.7723024E-2,-5.2721005E-2,-4.1802597E-1,-3.6105686E-1,-4.931897E-2,-3.8533248E-2,1.0508925E-1,2.883523E-2,-1.2631531E-2,-4.2478696E-1,2.05715E-3,5.0931084E-3,-1.9817784E-2,6.4344504E-3,-7.6782177E-3,-1.547751E-2,1.2695038E-3,6.107304E-3,2.6581858E-3,-2.1036833E-3,5.5131274E-3,-2.1459853E-2,-8.867422E-3],"categories":[],"categories_nodes":[],"categories_segments":[],"categories_sizes":[],"default_left":[0,0,0,0,0,0,0,0,0,0,0,0,0,0,0,0,0,0,0,0,0,0,0,0,0,0,0],"id":12,"left_children":[1,3,5,7,9,11,13,15,17,19,21,23,-1,25,-1,-1,-1,-1,-1,-1,-1,-1,-1,-1,-1,-1,-1],"loss_changes":[1.3343649E1,3.023254E0,1.0351439E0,1.3941871E0,9.337094E-1,1.7032342E-1,2.5030994E-1,3.181622E-1,1.8011868E0,9.0872335E-1,3.2386684E-1,5.0830517E-2,0E0,4.63295E-3,0E0,0E0,0E0,0E0,0E0,0E0,0E0,0E0,0E0,0E0,0E0,0E0,0E0],"parents":[2147483647,0,0,1,1,2,2,3,3,4,4,5,5,6,6,7,7,8,8,9,9,10,10,11,11,13,13],"right_children":[2,4,6,8,10,12,14,16,18,20,22,24,-1,26,-1,-1,-1,-1,-1,-1,-1,-1,-1,-1,-1,-1,-1],"split_conditions":[2.0483258E0,-3.7707356E-1,-1.7967577E0,-1.9193258E0,-1.0144247E0,-2.901562E-1,8.2997006E-1,5.475423E-1,3.842705E-1,-5.1241285E-1,3.842705E-1,-5.079595E-1,-1.2631531E-2,8.1123227E-1,2.05715E-3,5.0931084E-3,-1.9817784E-2,6.4344504E-3,-7.6782177E-3,-1.547751E-2,1.2695038E-3,6.107304E-3,2.6581858E-3,-2.1036833E-3,5.5131274E-3,-2.1459853E-2,-8.867422E-3],"split_indices":[0,2,1,1,1,7,2,6,0,7,0,8,0,2,0,0,0,0,0,0,0,0,0,0,0,0,0],"split_type":[0,0,0,0,0,0,0,0,0,0,0,0,0,0,0,0,0,0,0,0,0,0,0,0,0,0,0],"sum_hessian":[6.17E2,5.34E2,8.3E1,1.11E2,4.23E2,9E0,7.4E1,1.6E1,9.5E1,5.1E1,3.72E2,7E0,2E0,7.3E1,1E0,1E0,1.5E1,3.5E1,6E1,9E0,4.2E1,2.79E2,9.3E1,4E0,3E0,7.1E1,2E0],"tree_param":{"num_deleted":"0","num_feature":"9","num_nodes":"27","size_leaf_vector":"1"}},{"base_weights":[-3.8273673E-4,4.998093E-2,-3.4782344E-1,-9.32637E-2,8.004359E-2,-5.1007163E-2,-3.8525686E-1,-1.833179E-2,-6.391183E-2,9.236471E-2,-8.986727E-2,2.7819648E-2,-1.221048E-2,-2.0268634E-2,-4.2676818E-2,-6.828043E-3,7.208972E-3,-5.738295E-3,4.884181E-3,-1.2093186E-2,5.598792E-3,2.628437E-3,-3.6356002E-3,-1.342209E-2,4.043744E-3],"categories":[],"categories_nodes":[],"categories_segments":[],"categories_sizes":[],"default_left":[0,0,0,0,0,0,0,0,0,0,0,0,0,0,0,0,0,0,0,0,0,0,0,0,0],"id":13,"left_children":[1,3,5,7,9,11,13,-1,15,17,19,21,-1,-1,23,-1,-1,-1,-1,-1,-1,-1,-1,-1,-1],"loss_changes":[1.091888E1,2.3544066E0,8.5810566E-1,7.38846E-1,9.524658E-1,1.5908916E-1,4.650898E-1,0E0,1.334923E0,4.7503018E-1,9.781455E-1,2.3726918E-2,0E0,0E0,1.6117841E-1,0E0,0E0,0E0,0E0,0E0,0E0,0E0,0E0,0E0,0E0],"parents":[2147483647,0,0,1,1,2,2,3,3,4,4,5,5,6,6,8,8,9,9,10,10,11,11,14,14],"right_children":[2,4,6,8,10,12,14,-1,16,18,20,22,-1,-1,24,-1,-1,-1,-1,-1,-1,-1,-1,-1,-1],"split_conditions":[2.0483258E0,-6.818654E-1,-1.7967577E0,-2.6907802E0,1.3365872E0,-2.901562E-1,7.19991E-1,-1.833179E-2,-6.471259E-2,-2.430914E0,7.483326E-1,-2.0948803E0,-1.221048E-2,-2.0268634E-2,-9.3771344E-1,-6.828043E-3,7.208972E-3,-5.738295E-3,4.884181E-3,-1.2093186E-2,5.598792E-3,2.628437E-3,-3.6356002E-3,-1.342209E-2,4.043744E-3],"split_indices":[0,2,1,1,0,7,2,0,7,1,2,1,0,0,1,0,0,0,0,0,0,0,0,0,0],"split_type":[0,0,0,0,0,0,0,0,0,0,0,0,0,0,0,0,0,0,0,0,0,0,0,0,0],"sum_hessian":[6.22E2,5.44E2,7.8E1,9.4E1,4.5E2,9E0,6.9E1,8E0,8.6E1,4.2E2,3E1,7E0,2E0,6.5E1,4E0,6.4E1,2.2E1,1E1,4.1E2,1.7E1,1.3E1,6E0,1E0,1E0,3E0],"tree_param":{"num_deleted":"0","num_feature":"9","num_nodes":"25","size_leaf_vector":"1"}},{"base_weights":[-2.380874E-3,4.9766112E-2,-3.4317034E-1,-7.088253E-2,8.189855E-2,-7.2342E-2,-3.707267E-1,-1.2204649E-1,5.61025E-2,-3.4316737E-2,9.712011E-2,5.3730153E-2,-1.8394575E-1,-1.9319318E-2,-1.23633094E-1,-9.964332E-3,5.1151215E-5,-1.2271898E-2,4.660059E-3,-1.4236827E-2,1.3062046E-3,5.639376E-3,2.5122985E-3,5.13049E-3,-3.5447106E-3,-3.5253484E-3,-1.1803464E-2,-1.755278E-2,3.892103E-3],"categories":[],"categories_nodes":[],"categories_segments":[],"categories_sizes":[],"default_left":[0,0,0,0,0,0,0,0,0,0,0,0,0,0,0,0,0,0,0,0,0,0,0,0,0,0,0,0,0],"id":14,"left_children":[1,3,5,7,9,11,13,15,17,19,21,23,25,-1,27,-1,-1,-1,-1,-1,-1,-1,-1,-1,-1,-1,-1,-1,-1],"loss_changes":[1.1248441E1,2.1341324E0,6.000757E-1,7.605057E-1,7.710693E-1,1.3651457E-1,2.4630451E-1,7.891942E-1,4.0322477E-1,7.7935314E-1,2.7634144E-1,3.773241E-2,1.291962E-2,0E0,3.0224678E-1,0E0,0E0,0E0,0E0,0E0,0E0,0E0,0E0,0E0,0E0,0E0,0E0,0E0,0E0],"parents":[2147483647,0,0,1,1,2,2,3,3,4,4,5,5,6,6,7,7,8,8,9,9,10,10,11,11,12,12,14,14],"right_children":[2,4,6,8,10,12,14,16,18,20,22,24,26,-1,28,-1,-1,-1,-1,-1,-1,-1,-1,-1,-1,-1,-1,-1,-1],"split_conditions":[2.0483258E0,-3.7707356E-1,-1.7967577E0,3.3187753E-1,-1.0144247E0,1.287392E0,7.19991E-1,-7.716371E-2,-7.172392E-1,-5.1241285E-1,3.842705E-1,-2.0948803E0,-4.6694E-1,-1.9319318E-2,-6.4349467E-1,-9.964332E-3,5.1151215E-5,-1.2271898E-2,4.660059E-3,-1.4236827E-2,1.3062046E-3,5.639376E-3,2.5122985E-3,5.13049E-3,-3.5447106E-3,-3.5253484E-3,-1.1803464E-2,-1.755278E-2,3.892103E-3],"split_indices":[0,2,1,1,1,6,2,7,6,7,0,1,7,0,1,0,0,0,0,0,0,0,0,0,0,0,0,0,0],"split_type":[0,0,0,0,0,0,0,0,0,0,0,0,0,0,0,0,0,0,0,0,0,0,0,0,0,0,0,0,0],"sum_hessian":[6.31E2,5.48E2,8.3E1,1.15E2,4.33E2,8E0,7.5E1,8.2E1,3.3E1,5E1,3.83E2,4E0,4E0,7E1,5E0,5E1,3.2E1,3E0,3E1,9E0,4.1E1,2.86E2,9.7E1,3E0,1E0,2E0,2E0,2E0,3E0],"tree_param":{"num_deleted":"0","num_feature":"9","num_nodes":"29","size_leaf_vector":"1"}},{"base_weights":[1.124247E-3,5.2135535E-2,-3.356867E-1,-1.6200028E-1,7.022981E-2,-2.1663725E-2,-3.598747E-1,-2.2491567E-1,7.06845E-3,1.07772924E-1,-8.718457E-3,6.604457E-2,-8.031148E-3,-1.8278055E-2,1.8073246E-3,-6.6625634E-3,-1.985701E-2,5.469275E-3,-1.10931685E-2,-1.3674519E-2,6.991934E-4,-1.991676E-3,5.1236236E-3],"categories":[],"categories_nodes":[],"categories_segments":[],"categories_sizes":[],"default_left":[0,0,0,0,0,0,0,0,0,0,0,0,0,0,0,0,0,0,0,0,0,0,0],"id":15,"left_children":[1,3,5,7,9,11,13,15,-1,17,19,21,-1,-1,-1,-1,-1,-1,-1,-1,-1,-1,-1],"loss_changes":[1.0841633E1,2.134676E0,6.2263775E-1,8.5251975E-1,1.5007052E0,9.592342E-2,1.8661308E-1,5.1540756E-1,0E0,2.0659494E-1,9.8961836E-1,2.3366421E-2,0E0,0E0,0E0,0E0,0E0,0E0,0E0,0E0,0E0,0E0,0E0],"parents":[2147483647,0,0,1,1,2,2,3,3,4,4,5,5,6,6,7,7,9,9,10,10,11,11],"right_children":[2,4,6,8,10,12,14,16,-1,18,20,22,-1,-1,-1,-1,-1,-1,-1,-1,-1,-1,-1],"split_conditions":[2.0483258E0,-1.7967577E0,-2.179999E0,7.483326E-1,3.842705E-1,-2.721836E-1,8.2997006E-1,1.1659939E0,7.06845E-3,2.142014E0,-3.1184287E0,-1.9440576E0,-8.031148E-3,-1.8278055E-2,1.8073246E-3,-6.6625634E-3,-1.985701E-2,5.469275E-3,-1.10931685E-2,-1.3674519E-2,6.991934E-4,-1.991676E-3,5.1236236E-3],"split_indices":[0,1,1,2,0,2,2,4,0,4,2,2,0,0,0,0,0,0,0,0,0,0,0],"split_type":[0,0,0,0,0,0,0,0,0,0,0,0,0,0,0,0,0,0,0,0,0,0,0],"sum_hessian":[6.29E2,5.47E2,8.2E1,4.2E1,5.05E2,6E0,7.6E1,3.5E1,7E0,3.42E2,1.63E2,4E0,2E0,7.5E1,1E0,2.4E1,1.1E1,3.41E2,1E0,1.2E1,1.51E2,1E0,3E0],"tree_param":{"num_deleted":"0","num_feature":"9","num_nodes":"23","size_leaf_vector":"1"}},{"base_weights":[-6.553767E-3,4.4239484E-2,-3.1354758E-1,-1.4777759E-1,5.8890816E-2,-4.4133376E-2,-3.436817E-1,-2.1679327E-1,6.9065215E-3,-2.5301376E-1,6.849513E-2,3.004495E-2,-1.1361557E-2,-1.7449576E-2,1.7621414E-3,-1.249922E-2,3.4871437E-3,-1.7325765E-2,4.5372113E-3,-1.3190847E-3,4.5051677E-3,2.573752E-3,-2.9991418E-3],"categories":[],"categories_nodes":[],"categories_segments":[],"categories_sizes":[],"default_left":[0,0,0,0,0,0,0,0,0,0,0,0,0,0,0,0,0,0,0,0,0,0,0],"id":16,"left_children":[1,3,5,7,9,11,13,15,-1,17,19,21,-1,-1,-1,-1,-1,-1,-1,-1,-1,-1,-1],"loss_changes":[9.66607E0,1.5053813E0,6.992655E-1,7.79767E-1,1.5001676E0,1.42646E-1,1.7124939E-1,3.1225872E-1,0E0,5.135726E-1,9.8848414E-1,1.8522047E-2,0E0,0E0,0E0,0E0,0E0,0E0,0E0,0E0,0E0,0E0,0E0],"parents":[2147483647,0,0,1,1,2,2,3,3,4,4,5,5,6,6,7,7,9,9,10,10,11,11],"right_children":[2,4,6,8,10,12,14,16,-1,18,20,22,-1,-1,-1,-1,-1,-1,-1,-1,-1,-1,-1],"split_conditions":[2.0483258E0,-1.7967577E0,-1.7967577E0,7.483326E-1,-3.1184287E0,-2.901562E-1,8.2997006E-1,1.6687759E0,6.9065215E-3,-8.179566E-2,-5.326599E-1,-2.0948803E0,-1.1361557E-2,-1.7449576E-2,1.7621414E-3,-1.249922E-2,3.4871437E-3,-1.7325765E-2,4.5372113E-3,-1.3190847E-3,4.5051677E-3,2.573752E-3,-2.9991418E-3],"split_indices":[0,1,1,2,2,7,2,3,0,7,7,1,0,0,0,0,0,0,0,0,0,0,0],"split_type":[0,0,0,0,0,0,0,0,0,0,0,0,0,0,0,0,0,0,0,0,0,0,0],"sum_hessian":[6.18E2,5.31E2,8.7E1,3.7E1,4.94E2,9E0,7.8E1,3E1,7E0,1.4E1,4.8E2,7E0,2E0,7.7E1,1E0,2.7E1,3E0,1.1E1,3E0,8.9E1,3.91E2,6E0,1E0],"tree_param":{"num_deleted":"0","num_feature":"9","num_nodes":"23","size_leaf_vector":"1"}},{"base_weights":[-2.526449E-3,4.386625E-2,-2.8948447E-1,-1.5956253E-1,6.117815E-2,-1.06189765E-1,-1.6493171E-2,-2.1079533E-1,6.335757E-3,9.674786E-2,-1.582569E-2,1.05051495E-1,-1.7926796E-1,6.203734E-5,-1.3571069E-2,7.62706E-4,5.3544245E-3,-6.482854E-3,1.5025719E-3,6.7694844E-3,1.984807E-3,-3.2707432E-3,-1.7417496E-2],"categories":[],"categories_nodes":[],"categories_segments":[],"categories_sizes":[],"default_left":[0,0,0,0,0,0,0,0,0,0,0,0,0,0,0,0,0,0,0,0,0,0,0],"id":17,"left_children":[1,3,5,7,9,11,-1,13,-1,15,17,19,21,-1,-1,-1,-1,-1,-1,-1,-1,-1,-1],"loss_changes":[8.22667E0,1.8833268E0,6.0147953E-1,6.427169E-1,1.3463821E0,2.8126356E-1,0E0,4.6311355E-1,0E0,2.815125E-1,8.1856847E-1,4.539367E-3,2.2746938E-1,0E0,0E0,0E0,0E0,0E0,0E0,0E0,0E0,0E0,0E0],"parents":[2147483647,0,0,1,1,2,2,3,3,4,4,5,5,7,7,9,9,10,10,11,11,12,12],"right_children":[2,4,6,8,10,12,-1,14,-1,16,18,20,22,-1,-1,-1,-1,-1,-1,-1,-1,-1,-1],"split_conditions":[2.0483258E0,-1.7967577E0,-3.3322808E-1,7.483326E-1,3.842705E-1,-7.157906E-1,-1.6493171E-2,5.475423E-1,6.335757E-3,-7.515665E-1,-7.0117104E-1,8.1123227E-1,-1.7967577E0,6.203734E-5,-1.3571069E-2,7.62706E-4,5.3544245E-3,-6.482854E-3,1.5025719E-3,6.7694844E-3,1.984807E-3,-3.2707432E-3,-1.7417496E-2],"split_indices":[0,1,1,2,0,7,0,6,0,1,2,2,1,0,0,0,0,0,0,0,0,0,0],"split_type":[0,0,0,0,0,0,0,0,0,0,0,0,0,0,0,0,0,0,0,0,0,0,0],"sum_hessian":[6.16E2,5.31E2,8.5E1,4.1E1,4.9E2,1.6E1,6.9E1,3.5E1,6E0,3.35E2,1.55E2,4E0,1.2E1,8E0,2.7E1,3.8E1,2.97E2,4.4E1,1.11E2,2E0,2E0,8E0,4E0],"tree_param":{"num_deleted":"0","num_feature":"9","num_nodes":"23","size_leaf_vector":"1"}},{"base_weights":[-1.7455345E-3,4.063449E-2,-2.7971753E-1,-5.380129E-2,6.875851E-2,-5.5847425E-2,-3.0254796E-1,-2.1243946E-1,-1.086038E-2,-3.992971E-2,8.109758E-2,2.1400273E-2,-1.0873812E-2,-1.5801912E-2,-9.248874E-2,-1.3857541E-2,3.0121005E-3,6.2168175E-3,-4.7190604E-3,4.874658E-4,-1.3235199E-2,-6.313639E-3,4.20914E-3,-1.5583873E-3,5.094011E-3,-1.5196182E-2,4.460481E-3],"categories":[],"categories_nodes":[],"categories_segments":[],"categories_sizes":[],"default_left":[0,0,0,0,0,0,0,0,0,0,0,0,0,0,0,0,0,0,0,0,0,0,0,0,0,0,0],"id":18,"left_children":[1,3,5,7,9,11,13,15,17,19,21,23,-1,-1,25,-1,-1,-1,-1,-1,-1,-1,-1,-1,-1,-1,-1],"loss_changes":[7.480178E0,1.4671082E0,4.124322E-1,8.628254E-1,5.7321024E-1,1.1702314E-1,1.8613434E-1,4.93127E-1,1.152201E0,4.9390963E-1,2.5502634E-1,3.2790072E-2,0E0,0E0,2.5761718E-1,0E0,0E0,0E0,0E0,0E0,0E0,0E0,0E0,0E0,0E0,0E0,0E0],"parents":[2147483647,0,0,1,1,2,2,3,3,4,4,5,5,6,6,7,7,8,8,9,9,10,10,11,11,14,14],"right_children":[2,4,6,8,10,12,14,16,18,20,22,24,-1,-1,26,-1,-1,-1,-1,-1,-1,-1,-1,-1,-1,-1,-1],"split_conditions":[2.0483258E0,-3.5424006E-1,-1.7967577E0,-1.0427185E0,-6.207507E-1,-3.8035274E-1,7.19991E-1,4.4785883E-2,3.842705E-1,-6.583382E-1,-3.2032638E0,-5.079595E-1,-1.0873812E-2,-1.5801912E-2,-6.4349467E-1,-1.3857541E-2,3.0121005E-3,6.2168175E-3,-4.7190604E-3,4.874658E-4,-1.3235199E-2,-6.313639E-3,4.20914E-3,-1.5583873E-3,5.094011E-3,-1.5196182E-2,4.460481E-3],"split_indices":[0,2,1,1,7,7,2,7,0,7,1,8,0,0,1,0,0,0,0,0,0,0,0,0,0,0,0],"split_type":[0,0,0,0,0,0,0,0,0,0,0,0,0,0,0,0,0,0,0,0,0,0,0,0,0,0,0],"sum_hessian":[6.33E2,5.5E2,8.3E1,1.26E2,4.24E2,8E0,7.5E1,2.6E1,1E2,4.3E1,3.81E2,6E0,2E0,7E1,5E0,2.1E1,5E0,3.8E1,6.2E1,3.6E1,7E0,5E0,3.76E2,4E0,2E0,2E0,3E0],"tree_param":{"num_deleted":"0","num_feature":"9","num_nodes":"27","size_leaf_vector":"1"}},{"base_weights":[-3.3572258E-3,3.8530294E-2,-2.6584578E-1,-5.831936E-2,6.610989E-2,-2.983043E-2,-2.8967005E-1,-2.0803778E-1,-1.4694714E-2,7.418129E-2,-6.438549E-2,5.174389E-2,-1.0511352E-2,-1.5107083E-2,-8.965358E-2,8.863541E-3,-1.2297666E-2,5.9138364E-3,-5.3518713E-3,-9.069756E-3,3.8956725E-3,-2.5089806E-2,-2.266278E-4,3.9528725E-3,-2.803436E-3,-1.4689644E-2,4.293214E-3],"categories":[],"categories_nodes":[],"categories_segments":[],"categories_sizes":[],"default_left":[0,0,0,0,0,0,0,0,0,0,0,0,0,0,0,0,0,0,0,0,0,0,0,0,0,0,0],"id":19,"left_children":[1,3,5,7,9,11,13,15,17,19,21,23,-1,-1,25,-1,-1,-1,-1,-1,-1,-1,-1,-1,-1,-1,-1],"loss_changes":[6.87112E0,1.4435643E0,4.7492743E-1,7.8071254E-1,4.471538E-1,1.4331953E-1,1.6748524E-1,4.3804824E-1,1.1668807E0,3.918593E-1,6.522333E-1,2.504587E-2,0E0,0E0,2.4020687E-1,0E0,0E0,0E0,0E0,0E0,0E0,0E0,0E0,0E0,0E0,0E0,0E0],"parents":[2147483647,0,0,1,1,2,2,3,3,4,4,5,5,6,6,7,7,8,8,9,9,10,10,11,11,14,14],"right_children":[2,4,6,8,10,12,14,16,18,20,22,24,-1,-1,26,-1,-1,-1,-1,-1,-1,-1,-1,-1,-1,-1,-1],"split_conditions":[2.0483258E0,-3.5424006E-1,-1.7967577E0,-1.0427185E0,1.3365872E0,-2.901562E-1,7.19991E-1,-3.5414863E0,3.842705E-1,-3.069004E0,-7.172392E-1,-2.0948803E0,-1.0511352E-2,-1.5107083E-2,-6.4349467E-1,8.863541E-3,-1.2297666E-2,5.9138364E-3,-5.3518713E-3,-9.069756E-3,3.8956725E-3,-2.5089806E-2,-2.266278E-4,3.9528725E-3,-2.803436E-3,-1.4689644E-2,4.293214E-3],"split_indices":[0,2,1,1,0,7,2,2,0,1,6,1,0,0,1,0,0,0,0,0,0,0,0,0,0,0,0],"split_type":[0,0,0,0,0,0,0,0,0,0,0,0,0,0,0,0,0,0,0,0,0,0,0,0,0,0,0],"sum_hessian":[6.23E2,5.38E2,8.5E1,1.19E2,4.19E2,8E0,7.7E1,2.6E1,9.3E1,3.95E2,2.4E1,6E0,2E0,7.2E1,5E0,2E0,2.4E1,3.8E1,5.5E1,5E0,3.9E2,2E0,2.2E1,5E0,1E0,2E0,3E0],"tree_param":{"num_deleted":"0","num_feature":"9","num_nodes":"27","size_leaf_vector":"1"}},{"base_weights":[-1.8126181E-4,3.88135E-2,-2.5271663E-1,-1.1772586E-1,5.1807217E-2,-1.1763356E-1,-1.4138549E-2,-4.0220525E-2,-2.8752849E-1,7.965253E-2,-3.2053876E-3,6.794091E-2,-1.7995963E-1,-1.1843584E-2,1.4964294E-3,3.8253367E-3,-1.6212014E-2,7.0452195E-4,4.5846016E-3,4.5484444E-4,-8.297171E-3,3.7509769E-3,9.906605E-4,-1.0718505E-2,5.824152E-3],"categories":[],"categories_nodes":[],"categories_segments":[],"categories_sizes":[],"default_left":[0,0,0,0,0,0,0,0,0,0,0,0,0,0,0,0,0,0,0,0,0,0,0,0,0],"id":20,"left_children":[1,3,5,7,9,11,-1,13,15,17,19,21,23,-1,-1,-1,-1,-1,-1,-1,-1,-1,-1,-1,-1],"loss_changes":[6.184227E0,1.1126102E0,3.0776215E-1,5.4118097E-1,7.707726E-1,2.0885077E-1,0E0,4.2093635E-1,1.9854379E-1,2.623458E-1,3.418578E-1,2.1701306E-4,1.5757996E-1,0E0,0E0,0E0,0E0,0E0,0E0,0E0,0E0,0E0,0E0,0E0,0E0],"parents":[2147483647,0,0,1,1,2,2,3,3,4,4,5,5,7,7,8,8,9,9,10,10,11,11,12,12],"right_children":[2,4,6,8,10,12,-1,14,16,18,20,22,24,-1,-1,-1,-1,-1,-1,-1,-1,-1,-1,-1,-1],"split_conditions":[2.0483258E0,-1.7967577E0,-3.3322808E-1,1.1659939E0,3.842705E-1,7.194204E-1,-1.4138549E-2,-5.1241285E-1,4.231364E-1,-5.201611E-1,1.4149206E0,-3.8196394E-1,-3.973252E-1,-1.1843584E-2,1.4964294E-3,3.8253367E-3,-1.6212014E-2,7.0452195E-4,4.5846016E-3,4.5484444E-4,-8.297171E-3,3.7509769E-3,9.906605E-4,-1.0718505E-2,5.824152E-3],"split_indices":[0,1,1,4,0,3,0,7,5,1,5,1,1,0,0,0,0,0,0,0,0,0,0,0,0],"split_type":[0,0,0,0,0,0,0,0,0,0,0,0,0,0,0,0,0,0,0,0,0,0,0,0,0],"sum_hessian":[6.26E2,5.43E2,8.3E1,4.1E1,5.02E2,1.6E1,6.7E1,2.9E1,1.2E1,3.33E2,1.69E2,4E0,1.2E1,7E0,2.2E1,1E0,1.1E1,5.2E1,2.81E2,1.58E2,1.1E1,3E0,1E0,1.1E1,1E0],"tree_param":{"num_deleted":"0","num_feature":"9","num_nodes":"25","size_leaf_vector":"1"}},{"base_weights":[-7.226584E-4,3.762151E-2,-2.4925809E-1,-6.748579E-2,5.4006085E-2,-7.0444494E-2,-2.6480085E-1,-2.3962085E-1,-2.4823183E-3,-3.8814124E-2,6.7296244E-2,-1.5292534E-1,5.026768E-2,-1.3679616E-2,-3.8156345E-2,-1.8070188E-3,-1.6212268E-2,2.1718016E-3,-1.1845015E-2,-1.2888444E-2,2.8765545E-4,-8.6091337E-4,3.8649961E-3,-9.803691E-3,-2.9400876E-3,4.99477E-3,-2.4653866E-3,-1.0460076E-2,4.4296277E-3],"categories":[],"categories_nodes":[],"categories_segments":[],"categories_sizes":[],"default_left":[0,0,0,0,0,0,0,0,0,0,0,0,0,0,0,0,0,0,0,0,0,0,0,0,0,0,0,0,0],"id":21,"left_children":[1,3,5,7,9,11,13,15,17,19,21,23,25,-1,27,-1,-1,-1,-1,-1,-1,-1,-1,-1,-1,-1,-1,-1,-1],"loss_changes":[5.9179053E0,9.301551E-1,2.1202517E-1,8.1622964E-1,5.7746756E-1,8.733874E-2,1.409936E-1,3.326702E-1,5.915507E-1,5.772172E-1,3.4627688E-1,8.776963E-3,2.4692418E-2,0E0,1.0525284E-1,0E0,0E0,0E0,0E0,0E0,0E0,0E0,0E0,0E0,0E0,0E0,0E0,0E0,0E0],"parents":[2147483647,0,0,1,1,2,2,3,3,4,4,5,5,6,6,7,7,8,8,9,9,10,10,11,11,12,12,14,14],"right_children":[2,4,6,8,10,12,14,16,18,20,22,24,26,-1,28,-1,-1,-1,-1,-1,-1,-1,-1,-1,-1,-1,-1,-1,-1],"split_conditions":[2.0483258E0,-9.836398E-1,-1.7967577E0,-5.326599E-1,-1.0144247E0,-2.469571E0,7.19991E-1,-7.177883E-1,1.1659939E0,-4.1459075E-1,-7.172392E-1,1.7156599E0,-2.0948803E0,-1.3679616E-2,-6.4349467E-1,-1.8070188E-3,-1.6212268E-2,2.1718016E-3,-1.1845015E-2,-1.2888444E-2,2.8765545E-4,-8.6091337E-4,3.8649961E-3,-9.803691E-3,-2.9400876E-3,4.99477E-3,-2.4653866E-3,-1.0460076E-2,4.4296277E-3],"split_indices":[0,2,1,7,1,1,2,8,4,8,6,4,1,0,1,0,0,0,0,0,0,0,0,0,0,0,0,0,0],"split_type":[0,0,0,0,0,0,0,0,0,0,0,0,0,0,0,0,0,0,0,0,0,0,0,0,0,0,0,0,0],"sum_hessian":[6.19E2,5.37E2,8.2E1,7.2E1,4.65E2,7E0,7.5E1,1.9E1,5.3E1,5.8E1,4.07E2,4E0,3E0,7.2E1,3E0,6E0,1.3E1,4.5E1,8E0,9E0,4.9E1,4.3E1,3.64E2,2E0,2E0,2E0,1E0,1E0,2E0],"tree_param":{"num_deleted":"0","num_feature":"9","num_nodes":"29","size_leaf_vector":"1"}},{"base_weights":[-4.410482E-3,3.0023143E-2,-2.2270828E-1,-4.428621E-2,5.5210136E-2,-2.9151041E-2,-2.4524596E-1,-1.4643428E-2,-2.4519728E-2,6.4228766E-2,-6.3313864E-2,3.4637958E-2,-9.476901E-3,-1.2873246E-2,-2.0244038E-2,-3.1363615E-3,4.1478844E-3,7.6179195E-4,3.6572353E-3,-1.7371168E-2,1.295351E-3,-1.1243558E-3,4.869241E-3,-1.0198574E-2,3.8340345E-3],"categories":[],"categories_nodes":[],"categories_segments":[],"categories_sizes":[],"default_left":[0,0,0,0,0,0,0,0,0,0,0,0,0,0,0,0,0,0,0,0,0,0,0,0,0],"id":22,"left_children":[1,3,5,7,9,11,13,-1,15,17,19,21,-1,-1,23,-1,-1,-1,-1,-1,-1,-1,-1,-1,-1],"loss_changes":[4.6896434E0,1.0112531E0,3.636489E-1,6.659819E-1,4.3484294E-1,1.0887446E-1,2.0373344E-1,0E0,5.3082836E-1,1.6269243E-1,7.4410725E-1,3.0865252E-2,0E0,0E0,1.0467933E-1,0E0,0E0,0E0,0E0,0E0,0E0,0E0,0E0,0E0,0E0],"parents":[2147483647,0,0,1,1,2,2,3,3,4,4,5,5,6,6,8,8,9,9,10,10,11,11,14,14],"right_children":[2,4,6,8,10,12,14,-1,16,18,20,22,-1,-1,24,-1,-1,-1,-1,-1,-1,-1,-1,-1,-1],"split_conditions":[2.0483258E0,-2.6740974E-1,-1.7967577E0,-2.6907802E0,1.3365872E0,-2.901562E-1,6.80022E-1,-1.4643428E-2,-6.471259E-2,-5.201611E-1,5.335248E-1,-5.079595E-1,-9.476901E-3,-1.2873246E-2,-6.4349467E-1,-3.1363615E-3,4.1478844E-3,7.6179195E-4,3.6572353E-3,-1.7371168E-2,1.295351E-3,-1.1243558E-3,4.869241E-3,-1.0198574E-2,3.8340345E-3],"split_indices":[0,2,1,1,0,7,2,0,7,1,2,8,0,0,1,0,0,0,0,0,0,0,0,0,0],"split_type":[0,0,0,0,0,0,0,0,0,0,0,0,0,0,0,0,0,0,0,0,0,0,0,0,0],"sum_hessian":[6.22E2,5.38E2,8.4E1,1.36E2,4.02E2,9E0,7.5E1,9E0,1.27E2,3.74E2,2.8E1,7E0,2E0,7.1E1,4E0,9.4E1,3.3E1,5.8E1,3.16E2,6E0,2.2E1,4E0,3E0,1E0,3E0],"tree_param":{"num_deleted":"0","num_feature":"9","num_nodes":"25","size_leaf_vector":"1"}},{"base_weights":[3.629758E-4,-1.19134605E-1,4.0194735E-2,-1.5477791E-1,-1.3645672E-2,-1.6777256E-1,4.9247816E-2,1.3605805E-1,-1.7434467E-1,-8.242353E-2,1.2488473E-1,-2.0565344E-1,3.516431E-2,-1.6049781E-1,5.48057E-2,9.264983E-3,3.4726572E-3,-7.953423E-3,-1.7557127E-2,-1.0994791E-2,-2.8658085E-4,3.098596E-3,6.8204487E-3,-1.3847656E-2,-3.2116014E-3,4.072396E-3,-2.592163E-3,2.1004619E-3,-1.5557351E-2,7.6723273E-4,3.3264959E-3],"categories":[],"categories_nodes":[],"categories_segments":[],"categories_sizes":[],"default_left":[0,0,0,0,0,0,0,0,0,0,0,1,0,0,0,0,0,0,0,0,0,0,0,0,0,0,0,0,0,0,0],"id":23,"left_children":[1,3,5,7,9,11,13,15,17,19,21,23,25,27,29,-1,-1,-1,-1,-1,-1,-1,-1,-1,-1,-1,-1,-1,-1,-1,-1],"loss_changes":[3.0082216E0,5.91964E-1,9.006833E-1,6.952255E-1,4.0093425E-1,1.6098022E-1,5.3920865E-1,1.3368219E-2,2.4393392E-1,2.9394397E-1,1.6967803E-3,1.5362692E-1,2.0330623E-2,3.7916133E-1,2.0439541E-1,0E0,0E0,0E0,0E0,0E0,0E0,0E0,0E0,0E0,0E0,0E0,0E0,0E0,0E0,0E0,0E0],"parents":[2147483647,0,0,1,1,2,2,3,3,4,4,5,5,6,6,7,7,8,8,9,9,10,10,11,11,12,12,13,13,14,14],"right_children":[2,4,6,8,10,12,14,16,18,20,22,24,26,28,30,-1,-1,-1,-1,-1,-1,-1,-1,-1,-1,-1,-1,-1,-1,-1,-1],"split_conditions":[-5.326599E-1,4.7069132E-1,-2.8329337E0,-9.330935E-1,5.475423E-1,1.7156599E0,-3.1184287E0,4.5066923E-1,-4.4285047E-1,-3.6408696E-1,-3.6688069E-1,-1.5606456E-1,-2.721836E-1,-3.3032584E0,-5.201611E-1,9.264983E-3,3.4726572E-3,-7.953423E-3,-1.7557127E-2,-1.0994791E-2,-2.8658085E-4,3.098596E-3,6.8204487E-3,-1.3847656E-2,-3.2116014E-3,4.072396E-3,-2.592163E-3,2.1004619E-3,-1.5557351E-2,7.6723273E-4,3.3264959E-3],"split_indices":[7,2,1,4,6,4,2,1,8,5,1,2,2,2,1,0,0,0,0,0,0,0,0,0,0,0,0,0,0,0,0],"split_type":[0,0,0,0,0,0,0,0,0,0,0,0,0,0,0,0,0,0,0,0,0,0,0,0,0,0,0,0,0,0,0],"sum_hessian":[6.3E2,1.57E2,4.73E2,1.17E2,4E1,1.9E1,4.54E2,7E0,1.1E2,2.7E1,1.3E1,1.6E1,3E0,1.1E1,4.43E2,3E0,4E0,1.03E2,7E0,9E0,1.8E1,3E0,1E1,1E1,6E0,2E0,1E0,5E0,6E0,1.02E2,3.41E2],"tree_param":{"num_deleted":"0","num_feature":"9","num_nodes":"31","size_leaf_vector":"1"}},{"base_weights":[-1.7433155E-3,3.2086533E-2,-2.1650323E-1,-9.999087E-2,4.357623E-2,-2.5487233E-2,-1.1924939E-2,-3.4694564E-2,-2.5302863E-1,-1.8926956E-1,5.0140034E-2,3.338658E-2,-8.699416E-3,-1.0534751E-2,1.6375611E-3,-1.4336343E-2,3.783758E-3,-1.3567405E-2,4.188189E-3,-9.0905436E-4,3.298927E-3,-9.892697E-4,4.575245E-3],"categories":[],"categories_nodes":[],"categories_segments":[],"categories_sizes":[],"default_left":[0,0,0,0,0,0,0,0,0,0,0,0,0,0,0,0,0,0,0,0,0,0,0],"id":24,"left_children":[1,3,5,7,9,11,-1,13,15,17,19,21,-1,-1,-1,-1,-1,-1,-1,-1,-1,-1,-1],"loss_changes":[4.591348E0,8.329285E-1,3.5525036E-1,4.3090445E-1,7.7825236E-1,9.323713E-2,0E0,3.8675618E-1,1.6569579E-1,3.3647162E-1,5.314307E-1,2.6532587E-2,0E0,0E0,0E0,0E0,0E0,0E0,0E0,0E0,0E0,0E0,0E0],"parents":[2147483647,0,0,1,1,2,2,3,3,4,4,5,5,7,7,8,8,9,9,10,10,11,11],"right_children":[2,4,6,8,10,12,-1,14,16,18,20,22,-1,-1,-1,-1,-1,-1,-1,-1,-1,-1,-1],"split_conditions":[2.0483258E0,-1.7967577E0,-1.7967577E0,1.1659939E0,-3.1184287E0,-2.901562E-1,-1.1924939E-2,-5.1241285E-1,7.4819857E-1,-8.179566E-2,-5.09972E-1,-5.079595E-1,-8.699416E-3,-1.0534751E-2,1.6375611E-3,-1.4336343E-2,3.783758E-3,-1.3567405E-2,4.188189E-3,-9.0905436E-4,3.298927E-3,-9.892697E-4,4.575245E-3],"split_indices":[0,1,1,4,2,7,0,7,2,7,7,8,0,0,0,0,0,0,0,0,0,0,0],"split_type":[0,0,0,0,0,0,0,0,0,0,0,0,0,0,0,0,0,0,0,0,0,0,0],"sum_hessian":[6.3E2,5.45E2,8.5E1,4.3E1,5.02E2,9E0,7.6E1,3.1E1,1.2E1,1.3E1,4.89E2,7E0,2E0,8E0,2.3E1,1.1E1,1E0,1E1,3E0,9.2E1,3.97E2,4E0,3E0],"tree_param":{"num_deleted":"0","num_feature":"9","num_nodes":"23","size_leaf_vector":"1"}},{"base_weights":[-2.9421947E-3,2.766439E-2,-2.0294306E-1,-1.1331997E-1,3.926612E-2,-1.6348565E-2,-2.2236946E-1,-2.179366E-1,2.4791555E-2,-2.0427498E-1,4.6581607E-2,5.106129E-2,-8.409436E-3,-1.1394509E-2,-9.839728E-2,-6.0005123E-3,-1.7151624E-2,-7.946268E-3,3.4585656E-3,-1.4110898E-2,4.0311324E-3,-1.090858E-3,3.093648E-3,3.768606E-3,-2.3700923E-3,-1.2586126E-2,4.3863524E-3],"categories":[],"categories_nodes":[],"categories_segments":[],"categories_sizes":[],"default_left":[0,0,0,0,0,0,0,0,0,0,0,0,0,0,0,0,0,0,0,0,0,0,0,0,0,0,0],"id":25,"left_children":[1,3,5,7,9,11,13,15,17,19,21,23,-1,-1,25,-1,-1,-1,-1,-1,-1,-1,-1,-1,-1,-1,-1],"loss_changes":[3.874303E0,9.024284E-1,3.00853E-1,6.122511E-1,9.1457915E-1,1.0070763E-1,2.9591799E-2,2.5283694E-1,1.65906E-1,3.558396E-1,5.1802933E-1,2.0328822E-2,0E0,0E0,1.6477066E-1,0E0,0E0,0E0,0E0,0E0,0E0,0E0,0E0,0E0,0E0,0E0,0E0],"parents":[2147483647,0,0,1,1,2,2,3,3,4,4,5,5,6,6,7,7,8,8,9,9,10,10,11,11,14,14],"right_children":[2,4,6,8,10,12,14,16,18,20,22,24,-1,-1,26,-1,-1,-1,-1,-1,-1,-1,-1,-1,-1,-1,-1],"split_conditions":[2.0483258E0,-1.7967577E0,-1.7967577E0,3.1922036E-1,-3.1184287E0,-2.901562E-1,7.19991E-1,-5.3359363E-2,-3.069004E0,-8.179566E-2,-5.326599E-1,-2.0948803E0,-8.409436E-3,-1.1394509E-2,-6.4349467E-1,-6.0005123E-3,-1.7151624E-2,-7.946268E-3,3.4585656E-3,-1.4110898E-2,4.0311324E-3,-1.090858E-3,3.093648E-3,3.768606E-3,-2.3700923E-3,-1.2586126E-2,4.3863524E-3],"split_indices":[0,1,1,2,2,7,2,8,1,7,7,1,0,0,1,0,0,0,0,0,0,0,0,0,0,0,0],"split_type":[0,0,0,0,0,0,0,0,0,0,0,0,0,0,0,0,0,0,0,0,0,0,0,0,0,0,0],"sum_hessian":[6.31E2,5.48E2,8.3E1,4.1E1,5.07E2,8E0,7.5E1,2.3E1,1.8E1,1.4E1,4.93E2,6E0,2E0,7.1E1,4E0,1.4E1,9E0,3E0,1.5E1,1.1E1,3E0,9E1,4.03E2,5E0,1E0,2E0,2E0],"tree_param":{"num_deleted":"0","num_feature":"9","num_nodes":"27","size_leaf_vector":"1"}},{"base_weights":[3.70285E-4,2.9390061E-2,-1.9240835E-1,-8.8757895E-2,3.8931306E-2,-2.5066493E-2,-1.0607759E-2,-4.6867795E-2,-2.91513E-1,6.1866686E-2,-8.2477685E-3,2.9635288E-2,-8.129121E-3,-1.08919805E-2,-2.706056E-4,-1.8343342E-2,4.015252E-3,4.3042653E-4,3.580976E-3,1.6970687E-4,-9.742884E-3,-1.0390568E-3,4.26235E-3],"categories":[],"categories_nodes":[],"categories_segments":[],"categories_sizes":[],"default_left":[0,0,0,0,0,0,0,0,0,0,0,0,0,0,0,0,0,0,0,0,0,0,0],"id":26,"left_children":[1,3,5,7,9,11,-1,13,15,17,19,21,-1,-1,-1,-1,-1,-1,-1,-1,-1,-1,-1],"loss_changes":[3.5916607E0,6.324769E-1,2.7225733E-1,3.4306154E-1,5.5994046E-1,8.004183E-2,0E0,2.5398013E-1,2.2558665E-1,1.8014085E-1,3.699855E-1,2.4201475E-2,0E0,0E0,0E0,0E0,0E0,0E0,0E0,0E0,0E0,0E0,0E0],"parents":[2147483647,0,0,1,1,2,2,3,3,4,4,5,5,7,7,8,8,9,9,10,10,11,11],"right_children":[2,4,6,8,10,12,-1,14,16,18,20,22,-1,-1,-1,-1,-1,-1,-1,-1,-1,-1,-1],"split_conditions":[2.0483258E0,-1.7967577E0,-1.7967577E0,1.4605253E0,3.842705E-1,-2.901562E-1,-1.0607759E-2,-5.1241285E-1,-2.179999E0,-5.201611E-1,1.4149206E0,-5.079595E-1,-8.129121E-3,-1.08919805E-2,-2.706056E-4,-1.8343342E-2,4.015252E-3,4.3042653E-4,3.580976E-3,1.6970687E-4,-9.742884E-3,-1.0390568E-3,4.26235E-3],"split_indices":[0,1,1,4,0,7,0,7,1,1,5,8,0,0,0,0,0,0,0,0,0,0,0],"split_type":[0,0,0,0,0,0,0,0,0,0,0,0,0,0,0,0,0,0,0,0,0,0,0],"sum_hessian":[6.4E2,5.57E2,8.3E1,4.1E1,5.16E2,9E0,7.4E1,3.5E1,6E0,3.47E2,1.69E2,7E0,2E0,6E0,2.9E1,5E0,1E0,5.4E1,2.93E2,1.6E2,9E0,4E0,3E0],"tree_param":{"num_deleted":"0","num_feature":"9","num_nodes":"23","size_leaf_vector":"1"}},{"base_weights":[-5.683458E-3,2.3149926E-2,-1.8590964E-1,-4.9462408E-2,4.4037763E-2,-2.4303759E-2,-2.0424488E-1,-1.6539608E-1,-1.4771828E-2,5.175916E-2,-6.265153E-2,2.8556429E-2,-7.858151E-3,-1.0384493E-2,1.5254527E-3,-1.1088691E-2,3.9142277E-3,4.5981384E-3,-3.7885413E-3,-7.7892276E-3,2.7409713E-3,-9.6569555E-3,5.640271E-3,-9.974957E-4,4.1025127E-3],"categories":[],"categories_nodes":[],"categories_segments":[],"categories_sizes":[],"default_left":[0,0,0,0,0,0,0,0,0,0,0,0,0,0,0,0,0,0,0,0,0,0,0,0,0],"id":27,"left_children":[1,3,5,7,9,11,13,15,17,19,21,23,-1,-1,-1,-1,-1,-1,-1,-1,-1,-1,-1,-1,-1],"loss_changes":[3.2781181E0,8.2727087E-1,2.528243E-1,4.8821718E-1,3.5170615E-1,7.471766E-2,6.9417E-2,4.0203E-1,6.254849E-1,2.5941992E-1,6.8574077E-1,2.2395212E-2,0E0,0E0,0E0,0E0,0E0,0E0,0E0,0E0,0E0,0E0,0E0,0E0,0E0],"parents":[2147483647,0,0,1,1,2,2,3,3,4,4,5,5,6,6,7,7,8,8,9,9,10,10,11,11],"right_children":[2,4,6,8,10,12,14,16,18,20,22,24,-1,-1,-1,-1,-1,-1,-1,-1,-1,-1,-1,-1,-1],"split_conditions":[2.0483258E0,-3.5424006E-1,-1.7967577E0,-1.0427185E0,1.3365872E0,-2.901562E-1,8.2997006E-1,4.4785883E-2,3.842705E-1,-3.069004E0,7.86243E-1,-5.079595E-1,-7.858151E-3,-1.0384493E-2,1.5254527E-3,-1.1088691E-2,3.9142277E-3,4.5981384E-3,-3.7885413E-3,-7.7892276E-3,2.7409713E-3,-9.6569555E-3,5.640271E-3,-9.974957E-4,4.1025127E-3],"split_indices":[0,2,1,1,0,7,2,7,0,1,2,8,0,0,0,0,0,0,0,0,0,0,0,0,0],"split_type":[0,0,0,0,0,0,0,0,0,0,0,0,0,0,0,0,0,0,0,0,0,0,0,0,0],"sum_hessian":[6.29E2,5.43E2,8.6E1,1.21E2,4.22E2,9E0,7.7E1,2.7E1,9.4E1,3.94E2,2.8E1,7E0,2E0,7.6E1,1E0,2.2E1,5E0,3.4E1,6E1,5E0,3.89E2,1.6E1,1.2E1,4E0,3E0],"tree_param":{"num_deleted":"0","num_feature":"9","num_nodes":"25","size_leaf_vector":"1"}},{"base_weights":[3.2620332E-3,2.9178772E-2,-1.693453E-1,-1.614851E-1,3.4132086E-2,-1.7711669E-3,-1.8743749E-1,1.2699817E-1,-3.358645E-1,-7.621219E-2,4.2756923E-2,4.5995858E-2,-5.6318585E-3,-9.810326E-3,-5.5354197E-2,2.915874E-4,9.306173E-3,-1.851322E-2,-1.5166387E-3,-1.8276377E-3,-1.692929E-2,1.4710558E-3,3.8871597E-3,3.4364003E-3,-2.2599266E-3,-1.1466847E-2,4.4485703E-3],"categories":[],"categories_nodes":[],"categories_segments":[],"categories_sizes":[],"default_left":[0,0,0,0,0,0,0,0,0,0,0,0,0,0,0,0,0,0,0,0,0,0,0,0,0,0,0],"id":28,"left_children":[1,3,5,7,9,11,13,15,17,19,21,23,-1,-1,25,-1,-1,-1,-1,-1,-1,-1,-1,-1,-1,-1,-1],"loss_changes":[2.8097749E0,5.2116394E-1,2.4827433E-1,7.469318E-1,5.105154E-1,5.2842494E-2,7.484865E-2,4.1898564E-2,8.336103E-2,3.9344174E-1,2.2866505E-1,1.7617717E-2,0E0,0E0,1.7106542E-1,0E0,0E0,0E0,0E0,0E0,0E0,0E0,0E0,0E0,0E0,0E0,0E0],"parents":[2147483647,0,0,1,1,2,2,3,3,4,4,5,5,6,6,7,7,8,8,9,9,10,10,11,11,14,14],"right_children":[2,4,6,8,10,12,14,16,18,20,22,24,-1,-1,26,-1,-1,-1,-1,-1,-1,-1,-1,-1,-1,-1,-1],"split_conditions":[2.0483258E0,-3.1184287E0,-1.7967577E0,-4.4208527E-1,-2.0180662E0,-2.721836E-1,7.19991E-1,-3.9657515E-1,-8.179566E-2,1.4605253E0,8.1763726E-1,-2.0948803E0,-5.6318585E-3,-9.810326E-3,-6.4349467E-1,2.915874E-4,9.306173E-3,-1.851322E-2,-1.5166387E-3,-1.8276377E-3,-1.692929E-2,1.4710558E-3,3.8871597E-3,3.4364003E-3,-2.2599266E-3,-1.1466847E-2,4.4485703E-3],"split_indices":[0,2,1,1,1,2,2,7,7,4,4,1,0,0,1,0,0,0,0,0,0,0,0,0,0,0,0],"split_type":[0,0,0,0,0,0,0,0,0,0,0,0,0,0,0,0,0,0,0,0,0,0,0,0,0,0,0],"sum_hessian":[6.26E2,5.45E2,8.1E1,1.3E1,5.32E2,8E0,7.3E1,5E0,8E0,3.8E1,4.94E2,6E0,2E0,6.8E1,5E0,2E0,3E0,7E0,1E0,3.4E1,4E0,3.59E2,1.35E2,5E0,1E0,2E0,3E0],"tree_param":{"num_deleted":"0","num_feature":"9","num_nodes":"27","size_leaf_vector":"1"}},{"base_weights":[1.7357696E-3,2.6366452E-2,-1.6340247E-1,-1.819232E-1,3.2222744E-2,-1.5245831E-2,-1.7721125E-1,-2.528534E-1,7.6348156E-2,-7.3335454E-2,4.0541578E-2,4.9729273E-2,-6.4176746E-2,-9.375996E-3,2.552086E-3,-2.0171816E-3,-1.7703265E-2,6.0756924E-3,-1.4787227E-3,-8.020095E-3,3.0923837E-3,-3.0416847E-4,2.565372E-3,4.784237E-3,-2.203429E-3,-4.860956E-3,1.6998186E-3,-8.244486E-3,4.281748E-3],"categories":[],"categories_nodes":[],"categories_segments":[],"categories_sizes":[],"default_left":[0,0,0,0,0,0,0,0,0,0,0,0,0,0,0,0,0,0,0,0,0,0,0,0,0,0,0,0,0],"id":29,"left_children":[1,3,5,7,9,11,13,15,17,19,21,23,25,-1,27,-1,-1,-1,-1,-1,-1,-1,-1,-1,-1,-1,-1,-1,-1],"loss_changes":[2.5383406E0,6.6821617E-1,1.6301322E-1,2.9409343E-1,4.6749914E-1,2.8625794E-2,1.3760948E-1,2.4381799E-1,2.2729974E-2,4.689471E-1,2.467733E-1,2.145879E-2,1.9524463E-2,0E0,8.367805E-2,0E0,0E0,0E0,0E0,0E0,0E0,0E0,0E0,0E0,0E0,0E0,0E0,0E0,0E0],"parents":[2147483647,0,0,1,1,2,2,3,3,4,4,5,5,6,6,7,7,8,8,9,9,10,10,11,11,12,12,14,14],"right_children":[2,4,6,8,10,12,14,16,18,20,22,24,26,-1,28,-1,-1,-1,-1,-1,-1,-1,-1,-1,-1,-1,-1,-1,-1],"split_conditions":[2.0483258E0,-3.1184287E0,-1.7967577E0,-8.179566E-2,-1.9193258E0,-5.1711935E-1,7.19991E-1,-4.4208527E-1,-1.5909977E-1,3.1922036E-1,-5.09972E-1,-2.0948803E0,1.9407046E0,-9.375996E-3,-6.4349467E-1,-2.0171816E-3,-1.7703265E-2,6.0756924E-3,-1.4787227E-3,-8.020095E-3,3.0923837E-3,-3.0416847E-4,2.565372E-3,4.784237E-3,-2.203429E-3,-4.860956E-3,1.6998186E-3,-8.244486E-3,4.281748E-3],"split_indices":[0,2,1,7,1,7,2,1,1,2,7,1,4,0,1,0,0,0,0,0,0,0,0,0,0,0,0,0,0],"split_type":[0,0,0,0,0,0,0,0,0,0,0,0,0,0,0,0,0,0,0,0,0,0,0,0,0,0,0,0,0],"sum_hessian":[6.22E2,5.42E2,8E1,1.4E1,5.28E2,7E0,7.3E1,1.1E1,3E0,3.8E1,4.9E2,3E0,4E0,6.9E1,4E0,4E0,7E0,2E0,1E0,2.3E1,1.5E1,9.2E1,3.98E2,2E0,1E0,3E0,1E0,1E0,3E0],"tree_param":{"num_deleted":"0","num_feature":"9","num_nodes":"29","size_leaf_vector":"1"}},{"base_weights":[-4.65756E-3,1.8819075E-2,-1.5474468E-1,-4.3379724E-2,3.721491E-2,-2.3405444E-2,-1.6979206E-1,-1.5491211E-1,-1.4238915E-2,-2.2573454E-2,4.4708632E-2,2.6225105E-2,-7.3975883E-3,-8.857705E-3,-5.3148925E-2,8.055435E-3,-9.398002E-3,4.234379E-3,-3.89164E-3,8.2716765E-4,-1.1011271E-2,-6.1406656E-3,2.3870373E-3,-8.759958E-4,3.7175051E-3,-1.0809802E-2,4.121182E-3],"categories":[],"categories_nodes":[],"categories_segments":[],"categories_sizes":[],"default_left":[0,0,0,0,0,0,0,0,0,0,0,0,0,0,0,0,0,0,0,0,0,0,0,0,0,0,0],"id":30,"left_children":[1,3,5,7,9,11,13,15,17,19,21,23,-1,-1,25,-1,-1,-1,-1,-1,-1,-1,-1,-1,-1,-1,-1],"loss_changes":[2.2403607E0,6.3092375E-1,1.6598845E-1,4.0731233E-1,1.9142509E-1,6.569307E-2,5.6706905E-2,3.0182165E-1,6.419947E-1,3.7475592E-1,1.9786644E-1,1.814444E-2,0E0,0E0,1.5044795E-1,0E0,0E0,0E0,0E0,0E0,0E0,0E0,0E0,0E0,0E0,0E0,0E0],"parents":[2147483647,0,0,1,1,2,2,3,3,4,4,5,5,6,6,7,7,8,8,9,9,10,10,11,11,14,14],"right_children":[2,4,6,8,10,12,14,16,18,20,22,24,-1,-1,26,-1,-1,-1,-1,-1,-1,-1,-1,-1,-1,-1,-1],"split_conditions":[2.0483258E0,-3.5424006E-1,-1.7967577E0,-1.0427185E0,-6.207507E-1,-2.901562E-1,7.19991E-1,-3.5414863E0,3.842705E-1,-6.583382E-1,-3.069004E0,-5.079595E-1,-7.3975883E-3,-8.857705E-3,-6.4349467E-1,8.055435E-3,-9.398002E-3,4.234379E-3,-3.89164E-3,8.2716765E-4,-1.1011271E-2,-6.1406656E-3,2.3870373E-3,-8.759958E-4,3.7175051E-3,-1.0809802E-2,4.121182E-3],"split_indices":[0,2,1,1,7,7,2,2,0,7,1,8,0,0,1,0,0,0,0,0,0,0,0,0,0,0,0],"split_type":[0,0,0,0,0,0,0,0,0,0,0,0,0,0,0,0,0,0,0,0,0,0,0,0,0,0,0],"sum_hessian":[6.34E2,5.49E2,8.5E1,1.25E2,4.24E2,9E0,7.6E1,2.5E1,1E2,4.7E1,3.77E2,7E0,2E0,7.1E1,5E0,2E0,2.3E1,3.9E1,6.1E1,4E1,7E0,6E0,3.71E2,4E0,3E0,2E0,3E0],"tree_param":{"num_deleted":"0","num_feature":"9","num_nodes":"27","size_leaf_vector":"1"}},{"base_weights":[2.3469543E-3,2.7343104E-2,-1.5177457E-1,-8.829861E-2,3.6566734E-2,8.628288E-3,-1.6628031E-1,-1.3335834E-1,5.1488816E-3,-1.4914215E-1,4.1986093E-2,6.294643E-2,-5.1442045E-3,-1.6904552E-1,1.1660279E-3,-3.0383365E-3,-1.173897E-2,-1.0792327E-2,3.5790228E-3,-7.8797014E-4,2.7891737E-3,4.4147796E-3,-1.5949846E-3,-2.1264434E-3,-8.507531E-3],"categories":[],"categories_nodes":[],"categories_segments":[],"categories_sizes":[],"default_left":[0,0,0,0,0,0,0,0,0,0,0,0,0,0,0,0,0,0,0,0,0,0,0,0,0],"id":31,"left_children":[1,3,5,7,9,11,13,15,-1,17,19,21,-1,23,-1,-1,-1,-1,-1,-1,-1,-1,-1,-1,-1],"loss_changes":[2.3464363E0,5.621462E-1,1.9920957E-1,3.498683E-1,4.9538362E-1,5.4933347E-2,4.483652E-2,2.2132742E-1,0E0,2.2157472E-1,3.777355E-1,1.7242221E-2,0E0,3.5293102E-3,0E0,0E0,0E0,0E0,0E0,0E0,0E0,0E0,0E0,0E0,0E0],"parents":[2147483647,0,0,1,1,2,2,3,3,4,4,5,5,6,6,7,7,9,9,10,10,11,11,13,13],"right_children":[2,4,6,8,10,12,14,16,-1,18,20,22,-1,24,-1,-1,-1,-1,-1,-1,-1,-1,-1,-1,-1],"split_conditions":[2.0483258E0,-1.7967577E0,-2.0948803E0,7.483326E-1,-3.1184287E0,-2.721836E-1,8.2997006E-1,1.1659939E0,5.1488816E-3,-8.179566E-2,-5.09972E-1,1.5686698E0,-5.1442045E-3,-1.7967577E0,1.1660279E-3,-3.0383365E-3,-1.173897E-2,-1.0792327E-2,3.5790228E-3,-7.8797014E-4,2.7891737E-3,4.4147796E-3,-1.5949846E-3,-2.1264434E-3,-8.507531E-3],"split_indices":[0,1,1,2,2,2,2,4,0,7,7,6,0,1,0,0,0,0,0,0,0,0,0,0,0],"split_type":[0,0,0,0,0,0,0,0,0,0,0,0,0,0,0,0,0,0,0,0,0,0,0,0,0],"sum_hessian":[6.07E2,5.23E2,8.4E1,3.8E1,4.85E2,7E0,7.7E1,3.1E1,7E0,1.3E1,4.72E2,5E0,2E0,7.6E1,1E0,1.9E1,1.2E1,1E1,3E0,9.1E1,3.81E2,4E0,1E0,1E0,7.5E1],"tree_param":{"num_deleted":"0","num_feature":"9","num_nodes":"25","size_leaf_vector":"1"}},{"base_weights":[2.3546687E-3,2.4927456E-2,-1.4616457E-1,-3.409251E-2,3.51328E-2,-1.5198572E-1,-4.61289E-2,-2.1762303E-1,-2.1430978E-3,-1.5751556E-1,3.8841758E-2,-8.039952E-3,-1.9425971E-2,-1.0165892E-2,8.329502E-2,-1.2049392E-3,-1.5568639E-2,4.4501844E-4,-1.2587366E-2,6.1472952E-3,-1.0397074E-2,2.606366E-3,3.501469E-4,-2.3155536E-3,2.8749884E-3,1.6155898E-3,5.906117E-3],"categories":[],"categories_nodes":[],"categories_segments":[],"categories_sizes":[],"default_left":[0,0,1,0,0,0,0,0,0,0,0,0,0,0,0,0,0,0,0,0,0,0,0,0,0,0,0],"id":32,"left_children":[1,3,5,7,9,11,13,15,17,19,21,-1,23,-1,25,-1,-1,-1,-1,-1,-1,-1,-1,-1,-1,-1,-1],"loss_changes":[2.1090093E0,3.3006388E-1,4.1321754E-2,4.7449264E-1,3.3908653E-1,8.800316E-2,1.3899939E-1,2.102105E-1,1.9519535E-1,1.5284832E-1,1.9336748E-1,0E0,1.5071812E-2,0E0,3.2856911E-3,0E0,0E0,0E0,0E0,0E0,0E0,0E0,0E0,0E0,0E0,0E0,0E0],"parents":[2147483647,0,0,1,1,2,2,3,3,4,4,5,5,6,6,7,7,8,8,9,9,10,10,12,12,14,14],"right_children":[2,4,6,8,10,12,14,16,18,20,22,-1,24,-1,26,-1,-1,-1,-1,-1,-1,-1,-1,-1,-1,-1,-1],"split_conditions":[2.0483258E0,-1.0144247E0,8.0608165E-1,-3.4125503E-2,-3.1184287E0,1.7156599E0,-6.4349467E-1,4.231364E-1,-1.0297493E0,-9.696975E-1,3.842705E-1,-8.039952E-3,1.2540697E0,-1.0165892E-2,-3.6688069E-1,-1.2049392E-3,-1.5568639E-2,4.4501844E-4,-1.2587366E-2,6.1472952E-3,-1.0397074E-2,2.606366E-3,3.501469E-4,-2.3155536E-3,2.8749884E-3,1.6155898E-3,5.906117E-3],"split_indices":[0,1,2,3,2,4,1,5,1,1,0,0,3,0,1,0,0,0,0,0,0,0,0,0,0,0,0],"split_type":[0,0,0,0,0,0,0,0,0,0,0,0,0,0,0,0,0,0,0,0,0,0,0,0,0,0,0],"sum_hessian":[6.27E2,5.45E2,8.2E1,8E1,4.65E2,7.7E1,5E0,1.1E1,6.9E1,8E0,4.57E2,7.2E1,5E0,2E0,3E0,4E0,7E0,6.7E1,2E0,1E0,7E0,3.22E2,1.35E2,4E0,1E0,2E0,1E0],"tree_param":{"num_deleted":"0","num_feature":"9","num_nodes":"27","size_leaf_vector":"1"}},{"base_weights":[-2.838686E-3,2.1276819E-2,-1.08423494E-1,-1.3511737E-1,2.598256E-2,-3.3649925E-2,-1.4733525E-1,-7.165536E-2,-1.4586203E-2,-3.320435E-2,3.682325E-2,8.677159E-2,-8.0696866E-2,-1.5409539E-2,-1.3650295E-1,4.166141E-3,-4.665955E-3,2.2376764E-3,-6.161643E-3,4.2318195E-4,2.3524743E-3,8.359256E-3,2.724888E-4,-5.9037763E-3,4.424851E-3,7.7834487E-4,-7.772937E-3],"categories":[],"categories_nodes":[],"categories_segments":[],"categories_sizes":[],"default_left":[0,0,0,0,0,0,0,0,0,0,0,0,0,0,0,0,0,0,0,0,0,0,0,0,0,0,0],"id":33,"left_children":[1,3,5,7,9,11,13,15,-1,17,19,21,23,-1,25,-1,-1,-1,-1,-1,-1,-1,-1,-1,-1,-1,-1],"loss_changes":[1.5886087E0,3.7737358E-1,3.325522E-1,1.2817502E-1,3.1818646E-1,2.3928621E-1,9.035611E-2,4.8064474E-2,0E0,5.459344E-1,1.2082678E-1,7.7561356E-2,2.0017654E-1,0E0,2.1284997E-1,0E0,0E0,0E0,0E0,0E0,0E0,0E0,0E0,0E0,0E0,0E0,0E0],"parents":[2147483647,0,0,1,1,2,2,3,3,4,4,5,5,6,6,7,7,9,9,10,10,11,11,12,12,14,14],"right_children":[2,4,6,8,10,12,14,16,-1,18,20,22,24,-1,26,-1,-1,-1,-1,-1,-1,-1,-1,-1,-1,-1,-1],"split_conditions":[1.3365872E0,-2.8329337E0,-6.9394636E-1,1.4605253E0,-5.09972E-1,-1.5838276E-1,-5.7455677E-1,-8.179566E-2,-1.4586203E-2,-6.827234E-1,-1.5838276E-1,-3.3614638E-1,-1.0384754E0,-1.5409539E-2,-8.1959315E-2,4.166141E-3,-4.665955E-3,2.2376764E-3,-6.161643E-3,4.2318195E-4,2.3524743E-3,8.359256E-3,2.724888E-4,-5.9037763E-3,4.424851E-3,7.7834487E-4,-7.772937E-3],"split_indices":[0,1,1,4,7,4,1,7,0,8,4,7,1,0,1,0,0,0,0,0,0,0,0,0,0,0,0],"split_type":[0,0,0,0,0,0,0,0,0,0,0,0,0,0,0,0,0,0,0,0,0,0,0,0,0,0,0],"sum_hessian":[6.22E2,5.07E2,1.15E2,1.4E1,4.93E2,4E1,7.5E1,1.1E1,3E0,7.6E1,4.17E2,1.1E1,2.9E1,3E0,7.2E1,1E0,1E1,4.1E1,3.5E1,1.11E2,3.06E2,5E0,6E0,2.4E1,5E0,8E0,6.4E1],"tree_param":{"num_deleted":"0","num_feature":"9","num_nodes":"27","size_leaf_vector":"1"}},{"base_weights":[-2.6274852E-3,2.2758381E-2,-1.1528206E-1,-1.4084844E-1,2.7017755E-2,-1.4338662E-1,5.3513788E-2,-2.1590939E-1,-1.7292425E-2,-1.23731144E-1,3.1349286E-2,-4.9578257E-2,-1.5589967E-1,7.4148536E-2,-6.9160545E-3,-3.2404047E-3,-1.1411849E-2,2.9957932E-3,-1.0083347E-2,1.9751957E-3,-1.0940331E-2,9.3473645E-4,2.565959E-3,-4.215021E-3,4.7131213E-3,-7.102874E-3,-1.7586583E-2,1.1024133E-3,5.611058E-3],"categories":[],"categories_nodes":[],"categories_segments":[],"categories_sizes":[],"default_left":[0,0,1,0,0,0,0,0,0,0,0,0,0,0,0,0,0,0,0,0,0,0,0,0,0,0,0,0,0],"id":34,"left_children":[1,3,5,7,9,11,13,15,17,19,21,23,25,27,-1,-1,-1,-1,-1,-1,-1,-1,-1,-1,-1,-1,-1,-1,-1],"loss_changes":[1.7728609E0,3.5641786E-1,5.4848146E-1,1.1683142E-1,3.2644787E-1,1.07306E-1,7.75502E-2,1.1008978E-4,9.749449E-2,2.2591881E-1,1.2059417E-1,7.287432E-2,1.8315792E-1,2.926322E-2,0E0,0E0,0E0,0E0,0E0,0E0,0E0,0E0,0E0,0E0,0E0,0E0,0E0,0E0,0E0],"parents":[2147483647,0,0,1,1,2,2,3,3,4,4,5,5,6,6,7,7,8,8,9,9,10,10,11,11,12,12,13,13],"right_children":[2,4,6,8,10,12,14,16,18,20,22,24,26,28,-1,-1,-1,-1,-1,-1,-1,-1,-1,-1,-1,-1,-1,-1,-1],"split_conditions":[1.3365872E0,-2.8329337E0,7.871705E-1,-2.6740974E-1,-3.1184287E0,-2.0948803E0,1.1659939E0,-3.4125503E-2,1.4605253E0,-4.4208527E-1,7.194204E-1,1.2540697E0,7.19991E-1,8.339495E-1,-6.9160545E-3,-3.2404047E-3,-1.1411849E-2,2.9957932E-3,-1.0083347E-2,1.9751957E-3,-1.0940331E-2,9.3473645E-4,2.565959E-3,-4.215021E-3,4.7131213E-3,-7.102874E-3,-1.7586583E-2,1.1024133E-3,5.611058E-3],"split_indices":[0,1,2,2,2,1,4,3,4,1,3,3,2,2,0,0,0,0,0,0,0,0,0,0,0,0,0,0,0],"split_type":[0,0,0,0,0,0,0,0,0,0,0,0,0,0,0,0,0,0,0,0,0,0,0,0,0,0,0,0,0],"sum_hessian":[6.18E2,5.05E2,1.13E2,1.2E1,4.93E2,9.7E1,1.6E1,7E0,5E0,1.3E1,4.8E2,1.2E1,8.5E1,1.5E1,1E0,1E0,6E0,4E0,1E0,5E0,8E0,2.95E2,1.85E2,1E1,2E0,8.1E1,4E0,7E0,8E0],"tree_param":{"num_deleted":"0","num_feature":"9","num_nodes":"29","size_leaf_vector":"1"}},{"base_weights":[-4.8371805E-3,1.7977826E-2,-1.0537954E-1,-3.92851E-2,3.6818534E-2,-1.3406523E-1,9.479604E-2,-5.5084205E-3,-1.14491835E-1,2.109715E-2,5.995736E-2,-1.2332942E-1,-2.4345274E-1,-1.5411631E-3,5.2985256E-3,-6.042116E-3,1.1904371E-3,-1.3351584E-2,-1.3975733E-3,-3.4872617E-3,1.4355334E-3,5.490705E-3,2.6063526E-3,-7.1761804E-3,4.167024E-3,-1.8317634E-2,-4.8221126E-3],"categories":[],"categories_nodes":[],"categories_segments":[],"categories_sizes":[],"default_left":[0,0,1,0,0,0,0,0,0,0,0,0,0,0,0,0,0,0,0,0,0,0,0,0,0,0,0],"id":35,"left_children":[1,3,5,7,9,11,13,15,17,19,21,23,25,-1,-1,-1,-1,-1,-1,-1,-1,-1,-1,-1,-1,-1,-1],"loss_changes":[1.4263906E0,5.484356E-1,6.7305887E-1,3.1943876E-1,1.3769686E-1,8.858585E-2,2.4322301E-2,3.0042818E-1,5.073694E-1,1.6038574E-1,5.439633E-2,4.0427303E-1,1.0920876E-1,0E0,0E0,0E0,0E0,0E0,0E0,0E0,0E0,0E0,0E0,0E0,0E0,0E0,0E0],"parents":[2147483647,0,0,1,1,2,2,3,3,4,4,5,5,6,6,7,7,8,8,9,9,10,10,11,11,12,12],"right_children":[2,4,6,8,10,12,14,16,18,20,22,24,26,-1,-1,-1,-1,-1,-1,-1,-1,-1,-1,-1,-1,-1,-1],"split_conditions":[1.3365872E0,-2.6740974E-1,7.871705E-1,9.5471096E-1,5.475423E-1,7.081081E-1,-7.949498E-1,-6.3756925E-1,-1.5260752E-1,-6.511772E-1,-5.830952E-1,6.1427563E-1,-5.1241285E-1,-1.5411631E-3,5.2985256E-3,-6.042116E-3,1.1904371E-3,-1.3351584E-2,-1.3975733E-3,-3.4872617E-3,1.4355334E-3,5.490705E-3,2.6063526E-3,-7.1761804E-3,4.167024E-3,-1.8317634E-2,-4.8221126E-3],"split_indices":[0,2,2,6,6,2,7,7,7,7,7,2,7,0,0,0,0,0,0,0,0,0,0,0,0,0,0],"split_type":[0,0,0,0,0,0,0,0,0,0,0,0,0,0,0,0,0,0,0,0,0,0,0,0,0,0,0],"sum_hessian":[6.2E2,5.06E2,1.14E2,1.25E2,3.81E2,1E2,1.4E1,8.7E1,3.8E1,2.28E2,1.53E2,9.3E1,7E0,1E0,1.3E1,1.7E1,7E1,1.3E1,2.5E1,1.7E1,2.11E2,1.9E1,1.34E2,8.5E1,8E0,3E0,4E0],"tree_param":{"num_deleted":"0","num_feature":"9","num_nodes":"27","size_leaf_vector":"1"}},{"base_weights":[1.900826E-3,2.0658342E-2,-1.152467E-1,-3.683121E-2,3.2470856E-2,-5.8092535E-3,-1.2796265E-1,-6.840948E-2,4.5960136E-2,-2.0482608E-3,4.1819472E-2,4.0240288E-2,-6.3335807E-3,-1.0969797E-1,-8.078262E-3,1.1357063E-3,-6.1595268E-3,-1.0711925E-2,4.46069E-3,3.5875966E-3,-1.7531276E-3,2.3309754E-3,-6.542508E-4,2.7688285E-3,-1.6428427E-3,3.7813128E-3,-6.116498E-3],"categories":[],"categories_nodes":[],"categories_segments":[],"categories_sizes":[],"default_left":[0,0,0,0,0,0,0,0,0,0,0,0,0,0,0,0,0,0,0,0,0,0,0,0,0,0,0],"id":36,"left_children":[1,3,5,7,9,11,13,15,17,19,21,23,-1,25,-1,-1,-1,-1,-1,-1,-1,-1,-1,-1,-1,-1,-1],"loss_changes":[1.3691615E0,3.6587054E-1,1.1893427E-1,2.4366957E-1,1.4401251E-1,6.0753867E-2,2.9534698E-2,3.372519E-1,3.1173122E-1,2.3641607E-1,9.311372E-2,1.0670852E-2,0E0,1.3332498E-1,0E0,0E0,0E0,0E0,0E0,0E0,0E0,0E0,0E0,0E0,0E0,0E0,0E0],"parents":[2147483647,0,0,1,1,2,2,3,3,4,4,5,5,6,6,7,7,8,8,9,9,10,10,11,11,13,13],"right_children":[2,4,6,8,10,12,14,16,18,20,22,24,-1,26,-1,-1,-1,-1,-1,-1,-1,-1,-1,-1,-1,-1,-1],"split_conditions":[2.0483258E0,-7.0117104E-1,-1.7967577E0,-6.471259E-2,-4.4208527E-1,-2.901562E-1,-6.4878076E-1,5.475423E-1,-2.8329337E0,4.231364E-1,9.207011E-1,-2.721836E-1,-6.3335807E-3,-3.3322808E-1,-8.078262E-3,1.1357063E-3,-6.1595268E-3,-1.0711925E-2,4.46069E-3,3.5875966E-3,-1.7531276E-3,2.3309754E-3,-6.542508E-4,2.7688285E-3,-1.6428427E-3,3.7813128E-3,-6.116498E-3],"split_indices":[0,2,1,7,1,7,7,6,1,5,1,2,0,1,0,0,0,0,0,0,0,0,0,0,0,0,0],"split_type":[0,0,0,0,0,0,0,0,0,0,0,0,0,0,0,0,0,0,0,0,0,0,0,0,0,0,0],"sum_hessian":[6.21E2,5.36E2,8.5E1,9.1E1,4.45E2,9E0,7.6E1,6.6E1,2.5E1,9.5E1,3.5E2,7E0,2E0,5.2E1,2.4E1,2.5E1,4.1E1,3E0,2.2E1,2.9E1,6.6E1,3.22E2,2.8E1,6E0,1E0,3E0,4.9E1],"tree_param":{"num_deleted":"0","num_feature":"9","num_nodes":"27","size_leaf_vector":"1"}},{"base_weights":[-1.4743165E-3,1.5906483E-2,-1.1453646E-1,-2.0034445E-2,3.3783104E-2,-1.1951068E-1,-3.0782083E-2,-8.848903E-2,1.0005529E-2,2.000752E-2,5.5898666E-2,-6.292349E-3,-1.8312812E-3,3.194791E-3,-9.409499E-2,2.3211404E-3,-6.7844377E-3,-8.5579E-3,1.1869146E-3,-2.4835845E-3,1.4505399E-3,6.640099E-3,2.2720264E-3,-7.5079366E-3,3.6395134E-3,-1.8238932E-3,-6.6736597E-3],"categories":[],"categories_nodes":[],"categories_segments":[],"categories_sizes":[],"default_left":[0,0,0,0,0,1,0,0,0,0,0,0,0,0,0,0,0,0,0,0,0,0,0,0,0,0,0],"id":37,"left_children":[1,3,5,7,9,11,13,15,17,19,21,-1,23,-1,25,-1,-1,-1,-1,-1,-1,-1,-1,-1,-1,-1,-1],"loss_changes":[1.2241205E0,3.4762812E-1,3.090012E-2,3.710327E-1,1.0886198E-1,5.793047E-2,4.1978277E-2,3.565281E-1,3.1753534E-1,1.4196545E-1,1.04954064E-1,0E0,6.627221E-2,0E0,4.20662E-3,0E0,0E0,0E0,0E0,0E0,0E0,0E0,0E0,0E0,0E0,0E0,0E0],"parents":[2147483647,0,0,1,1,2,2,3,3,4,4,5,5,6,6,7,7,8,8,9,9,10,10,12,12,14,14],"right_children":[2,4,6,8,10,12,14,16,18,20,22,-1,24,-1,26,-1,-1,-1,-1,-1,-1,-1,-1,-1,-1,-1,-1],"split_conditions":[2.0483258E0,7.53929E-2,1.7156599E0,-5.09972E-1,5.475423E-1,8.0608165E-1,7.194204E-1,-7.991677E-1,-2.8329337E0,-1.0144247E0,-5.5442065E-1,-6.292349E-3,-9.3771344E-1,3.194791E-3,-2.469571E0,2.3211404E-3,-6.7844377E-3,-8.5579E-3,1.1869146E-3,-2.4835845E-3,1.4505399E-3,6.640099E-3,2.2720264E-3,-7.5079366E-3,3.6395134E-3,-1.8238932E-3,-6.6736597E-3],"split_indices":[0,2,4,7,6,2,3,7,1,1,7,0,1,0,1,0,0,0,0,0,0,0,0,0,0,0,0],"split_type":[0,0,0,0,0,0,0,0,0,0,0,0,0,0,0,0,0,0,0,0,0,0,0,0,0,0,0],"sum_hessian":[6.21E2,5.39E2,8.2E1,1.79E2,3.6E2,7.7E1,5E0,5.4E1,1.25E2,2.23E2,1.37E2,7.3E1,4E0,2E0,3E0,1.4E1,4E1,8E0,1.17E2,2.5E1,1.98E2,1.5E1,1.22E2,1E0,3E0,2E0,1E0],"tree_param":{"num_deleted":"0","num_feature":"9","num_nodes":"27","size_leaf_vector":"1"}},{"base_weights":[-1.2084018E-3,1.4923237E-2,-1.0374515E-1,-8.812208E-2,2.3445372E-2,3.474826E-3,-1.1353755E-1,-1.3536237E-1,4.7441833E-3,-1.6310301E-1,2.8031575E-2,-4.2261668E-2,5.977674E-2,-1.1541645E-1,7.314846E-4,-7.925802E-3,7.4506453E-3,-1.2500119E-2,3.659814E-3,-3.7816257E-4,1.766459E-3,1.7951891E-3,-3.5389492E-3,4.8382E-3,-1.2796253E-3,-5.0351857E-3,-7.0701144E-3],"categories":[],"categories_nodes":[],"categories_segments":[],"categories_sizes":[],"default_left":[0,0,0,0,0,0,0,0,0,0,0,0,0,0,0,0,0,0,0,0,0,0,0,0,0,0,0],"id":38,"left_children":[1,3,5,7,9,11,13,15,-1,17,19,21,23,25,-1,-1,-1,-1,-1,-1,-1,-1,-1,-1,-1,-1,-1],"loss_changes":[1.0221192E0,4.7100675E-1,8.858955E-2,3.6729875E-1,4.27213E-1,2.3126682E-2,2.0231307E-2,2.409038E-1,0E0,2.6471034E-1,1.2572974E-1,1.3686575E-2,1.5106726E-2,1.4816642E-2,0E0,0E0,0E0,0E0,0E0,0E0,0E0,0E0,0E0,0E0,0E0,0E0,0E0],"parents":[2147483647,0,0,1,1,2,2,3,3,4,4,5,5,6,6,7,7,9,9,10,10,11,11,12,12,13,13],"right_children":[2,4,6,8,10,12,14,16,-1,18,20,22,24,26,-1,-1,-1,-1,-1,-1,-1,-1,-1,-1,-1,-1,-1],"split_conditions":[2.0483258E0,-1.7967577E0,-1.7967577E0,7.483326E-1,-3.1184287E0,1.2540697E0,8.2997006E-1,1.3002533E-1,4.7441833E-3,-8.179566E-2,-5.326599E-1,7.194204E-1,-2.0948803E0,-6.4878076E-1,7.314846E-4,-7.925802E-3,7.4506453E-3,-1.2500119E-2,3.659814E-3,-3.7816257E-4,1.766459E-3,1.7951891E-3,-3.5389492E-3,4.8382E-3,-1.2796253E-3,-5.0351857E-3,-7.0701144E-3],"split_indices":[0,1,1,2,2,3,2,7,0,7,7,3,1,7,0,0,0,0,0,0,0,0,0,0,0,0,0],"split_type":[0,0,0,0,0,0,0,0,0,0,0,0,0,0,0,0,0,0,0,0,0,0,0,0,0,0,0],"sum_hessian":[6.16E2,5.33E2,8.3E1,4E1,4.93E2,7E0,7.6E1,3.2E1,8E0,1.1E1,4.82E2,4E0,3E0,7.5E1,1E0,3E1,2E0,8E0,3E0,8.2E1,4E2,1E0,3E0,2E0,1E0,5.1E1,2.4E1],"tree_param":{"num_deleted":"0","num_feature":"9","num_nodes":"27","size_leaf_vector":"1"}},{"base_weights":[1.3318559E-3,1.9038523E-2,-8.602248E-2,-1.1042347E-1,2.2892011E-2,-1.0769799E-1,3.9923925E-2,-5.1595803E-2,-1.296503E-2,-1.04043074E-1,2.6770638E-2,-4.478224E-3,-1.2690598E-1,5.946569E-2,-6.330065E-3,-6.4747403E-3,1.1272798E-3,2.8215318E-3,-1.0864781E-2,-7.491094E-4,1.7343592E-3,-2.4238115E-3,6.4317673E-3,-5.5590863E-3,-1.6240453E-2,3.9227474E-3,-6.184247E-4],"categories":[],"categories_nodes":[],"categories_segments":[],"categories_sizes":[],"default_left":[0,0,1,0,0,0,0,0,0,0,0,1,0,0,0,0,0,0,0,0,0,0,0,0,0,0,0],"id":39,"left_children":[1,3,5,7,9,11,13,15,-1,17,19,21,23,25,-1,-1,-1,-1,-1,-1,-1,-1,-1,-1,-1,-1,-1],"loss_changes":[9.544383E-1,2.5845352E-1,2.8821474E-1,1.17992565E-1,2.484599E-1,1.7588687E-1,5.9595585E-2,7.222603E-2,0E0,2.8487295E-1,1.6083068E-1,9.408673E-2,1.972779E-1,2.1431532E-2,0E0,0E0,0E0,0E0,0E0,0E0,0E0,0E0,0E0,0E0,0E0,0E0,0E0],"parents":[2147483647,0,0,1,1,2,2,3,3,4,4,5,5,6,6,7,7,9,9,10,10,11,11,12,12,13,13],"right_children":[2,4,6,8,10,12,14,16,-1,18,20,22,24,26,-1,-1,-1,-1,-1,-1,-1,-1,-1,-1,-1,-1,-1],"split_conditions":[1.3365872E0,-2.8329337E0,7.871705E-1,1.4605253E0,-3.1184287E0,-2.0948803E0,1.1659939E0,-9.836398E-1,-1.296503E-2,-4.4208527E-1,-5.09972E-1,3.3052453E-1,6.887941E-1,1.6687759E0,-6.330065E-3,-6.4747403E-3,1.1272798E-3,2.8215318E-3,-1.0864781E-2,-7.491094E-4,1.7343592E-3,-2.4238115E-3,6.4317673E-3,-5.5590863E-3,-1.6240453E-2,3.9227474E-3,-6.184247E-4],"split_indices":[0,1,2,4,2,1,4,2,0,1,7,2,2,3,0,0,0,0,0,0,0,0,0,0,0,0,0],"split_type":[0,0,0,0,0,0,0,0,0,0,0,0,0,0,0,0,0,0,0,0,0,0,0,0,0,0,0],"sum_hessian":[6.15E2,5.12E2,1.03E2,1.4E1,4.98E2,8.8E1,1.5E1,1.1E1,3E0,1.4E1,4.84E2,1.4E1,7.4E1,1.4E1,1E0,5E0,6E0,6E0,8E0,7.7E1,4.07E2,1.1E1,3E0,7E1,4E0,1.1E1,3E0],"tree_param":{"num_deleted":"0","num_feature":"9","num_nodes":"27","size_leaf_vector":"1"}},{"base_weights":[-2.1503957E-3,1.5470386E-2,-8.142471E-2,-1.2353732E-1,1.882256E-2,-9.48233E-2,8.245057E-2,5.9910655E-2,-1.6621798E-1,-2.2723036E-2,2.7045658E-2,1.3493705E-2,-1.027791E-1,4.4840625E-3,6.151289E-4,4.1437297E-4,4.078926E-3,-9.850544E-3,-1.434879E-3,2.1784366E-3,-5.6494116E-3,-1.5988834E-4,1.8900275E-3,-5.7194275E-3,8.498655E-3,-5.54654E-3,1.967174E-3],"categories":[],"categories_nodes":[],"categories_segments":[],"categories_sizes":[],"default_left":[0,0,1,0,0,0,0,0,0,0,0,0,0,0,0,0,0,0,0,0,0,0,0,0,0,0,0],"id":40,"left_children":[1,3,5,7,9,11,13,15,17,19,21,23,25,-1,-1,-1,-1,-1,-1,-1,-1,-1,-1,-1,-1,-1,-1],"loss_changes":[8.603381E-1,2.3717828E-1,2.5373632E-1,1.03914365E-1,1.6903985E-1,9.100866E-2,3.4616515E-3,2.6796153E-3,3.669277E-2,4.9559754E-1,1.3412997E-1,1.7953047E-1,1.1674285E-1,0E0,0E0,0E0,0E0,0E0,0E0,0E0,0E0,0E0,0E0,0E0,0E0,0E0,0E0],"parents":[2147483647,0,0,1,1,2,2,3,3,4,4,5,5,6,6,7,7,8,8,9,9,10,10,11,11,12,12],"right_children":[2,4,6,8,10,12,14,16,18,20,22,24,26,-1,-1,-1,-1,-1,-1,-1,-1,-1,-1,-1,-1,-1,-1],"split_conditions":[1.3365872E0,-2.8329337E0,8.2997006E-1,-7.716371E-2,-5.09972E-1,-9.330935E-1,2.0483258E0,-1.1620893E0,5.508772E-1,-6.7785287E-1,-1.5838276E-1,4.231364E-1,-2.2191548E-1,4.4840625E-3,6.151289E-4,4.1437297E-4,4.078926E-3,-9.850544E-3,-1.434879E-3,2.1784366E-3,-5.6494116E-3,-1.5988834E-4,1.8900275E-3,-5.7194275E-3,8.498655E-3,-5.54654E-3,1.967174E-3],"split_indices":[0,1,2,7,7,4,0,2,2,8,4,5,8,0,0,0,0,0,0,0,0,0,0,0,0,0,0],"split_type":[0,0,0,0,0,0,0,0,0,0,0,0,0,0,0,0,0,0,0,0,0,0,0,0,0,0,0],"sum_hessian":[6.14E2,5.03E2,1.11E2,1.1E1,4.92E2,1.03E2,8E0,2E0,9E0,8.1E1,4.11E2,7E0,9.6E1,7E0,1E0,1E0,1E0,7E0,2E0,4.7E1,3.4E1,1.08E2,3.03E2,4E0,3E0,9.1E1,5E0],"tree_param":{"num_deleted":"0","num_feature":"9","num_nodes":"27","size_leaf_vector":"1"}},{"base_weights":[-2.148266E-3,9.9390475E-3,-8.535523E-2,-6.404829E-2,1.5938139E-2,4.0893317E-3,-9.6913666E-2,-3.335024E-2,-2.083888E-1,2.9266246E-2,-1.089228E-2,4.657971E-2,-5.529073E-3,-8.254868E-3,-8.912881E-2,-3.3427437E-3,5.51095E-3,-1.3423005E-2,3.8009733E-3,-1.2360922E-3,1.9489967E-3,3.974933E-3,-1.6788362E-3,5.2310823E-4,4.004086E-3,3.603638E-3,-4.9045673E-3],"categories":[],"categories_nodes":[],"categories_segments":[],"categories_sizes":[],"default_left":[0,0,0,0,0,0,0,0,0,0,0,0,0,0,0,0,0,0,0,0,0,0,0,0,0,0,0],"id":41,"left_children":[1,3,5,7,9,11,13,15,17,19,21,23,-1,-1,25,-1,-1,-1,-1,-1,-1,-1,-1,-1,-1,-1,-1],"loss_changes":[6.2642395E-1,2.4247888E-1,8.2069635E-2,1.747201E-1,1.8054852E-1,5.387491E-2,2.244109E-2,1.757269E-1,1.4000157E-1,1.7769435E-1,3.47148E-1,8.842252E-3,0E0,0E0,1.009801E-1,0E0,0E0,0E0,0E0,0E0,0E0,0E0,0E0,0E0,0E0,0E0,0E0],"parents":[2147483647,0,0,1,1,2,2,3,3,4,4,5,5,6,6,7,7,8,8,9,9,10,10,11,11,14,14],"right_children":[2,4,6,8,10,12,14,16,18,20,22,24,-1,-1,26,-1,-1,-1,-1,-1,-1,-1,-1,-1,-1,-1,-1],"split_conditions":[2.0483258E0,-1.7967577E0,-1.7967577E0,1.4605253E0,3.842705E-1,-2.901562E-1,-3.973252E-1,4.4785883E-2,-2.179999E0,-5.201611E-1,-6.4349467E-1,-5.079595E-1,-5.529073E-3,-8.254868E-3,-3.3322808E-1,-3.3427437E-3,5.51095E-3,-1.3423005E-2,3.8009733E-3,-1.2360922E-3,1.9489967E-3,3.974933E-3,-1.6788362E-3,5.2310823E-4,4.004086E-3,3.603638E-3,-4.9045673E-3],"split_indices":[0,1,1,4,0,7,1,7,1,1,1,8,0,0,1,0,0,0,0,0,0,0,0,0,0,0,0],"split_type":[0,0,0,0,0,0,0,0,0,0,0,0,0,0,0,0,0,0,0,0,0,0,0,0,0,0,0],"sum_hessian":[6.21E2,5.43E2,7.8E1,4E1,5.03E2,9E0,6.9E1,3.4E1,6E0,3.36E2,1.67E2,7E0,2E0,5E0,6.4E1,2.8E1,6E0,5E0,1E0,5.1E1,2.85E2,3.3E1,1.34E2,4E0,3E0,3E0,6.1E1],"tree_param":{"num_deleted":"0","num_feature":"9","num_nodes":"27","size_leaf_vector":"1"}},{"base_weights":[3.3085768E-3,-4.04092E-2,1.8954754E-2,1.2688471E-1,-5.1728845E-2,-1.143672E-1,2.2979923E-2,1.4740151E-1,-1.9570838E-3,-6.755847E-2,4.4809703E-2,-1.1303048E-2,-1.7036916E-1,2.3858303E-2,-9.482947E-3,9.7436085E-3,4.163786E-3,-2.9117735E-3,-1.0530617E-2,3.8939451E-3,-1.0080563E-2,-6.4220238E-3,1.8906266E-3,-5.0402987E-3,-1.1606084E-2,3.0246823E-5,1.6340778E-3],"categories":[],"categories_nodes":[],"categories_segments":[],"categories_sizes":[],"default_left":[0,0,0,0,0,0,0,0,0,0,0,0,0,0,0,0,0,0,0,0,0,0,0,0,0,0,0],"id":42,"left_children":[1,3,5,7,9,11,13,15,-1,17,19,21,23,25,-1,-1,-1,-1,-1,-1,-1,-1,-1,-1,-1,-1,-1],"loss_changes":[4.3853623E-1,3.266002E-1,2.5592387E-1,4.323919E-2,2.4600604E-1,7.8879446E-2,9.025584E-2,1.4212817E-2,0E0,1.7045057E-1,2.0312697E-1,3.9376292E-2,1.5262067E-2,9.3948215E-2,0E0,0E0,0E0,0E0,0E0,0E0,0E0,0E0,0E0,0E0,0E0,0E0,0E0],"parents":[2147483647,0,0,1,1,2,2,3,3,4,4,5,5,6,6,7,7,9,9,10,10,11,11,12,12,13,13],"right_children":[2,4,6,8,10,12,14,16,-1,18,20,22,24,26,-1,-1,-1,-1,-1,-1,-1,-1,-1,-1,-1,-1,-1],"split_conditions":[-5.09972E-1,-9.330935E-1,-3.069004E0,9.207011E-1,6.1427563E-1,1.1659939E0,2.142014E0,4.5066923E-1,-1.9570838E-3,-4.4285047E-1,-5.943701E-1,-2.2523322E0,4.3718275E-2,-1.5838276E-1,-9.482947E-3,9.7436085E-3,4.163786E-3,-2.9117735E-3,-1.0530617E-2,3.8939451E-3,-1.0080563E-2,-6.4220238E-3,1.8906266E-3,-5.0402987E-3,-1.1606084E-2,3.0246823E-5,1.6340778E-3],"split_indices":[7,4,1,1,2,4,4,1,0,8,7,2,7,4,0,0,0,0,0,0,0,0,0,0,0,0,0],"split_type":[0,0,0,0,0,0,0,0,0,0,0,0,0,0,0,0,0,0,0,0,0,0,0,0,0,0,0],"sum_hessian":[6.39E2,1.68E2,4.71E2,1E1,1.58E2,1.3E1,4.58E2,9E0,1E0,1.36E2,2.2E1,5E0,8E0,4.57E2,1E0,4E0,5E0,1.29E2,7E0,2E1,2E0,1E0,4E0,5E0,3E0,1.26E2,3.31E2],"tree_param":{"num_deleted":"0","num_feature":"9","num_nodes":"27","size_leaf_vector":"1"}},{"base_weights":[5.476481E-4,1.5303113E-2,-6.894215E-2,-9.378847E-2,1.8519523E-2,1.3894512E-2,-9.100121E-2,-4.276321E-2,-1.1170856E-2,2.827985E-2,-6.077683E-3,-4.3297976E-2,7.469517E-2,-3.2890457E-1,-7.557328E-2,2.969049E-3,-3.4565073E-3,-4.0126927E-4,1.7991023E-3,5.122144E-3,-1.1696176E-3,-9.303918E-3,9.0719864E-4,-3.8838547E-3,4.7804373E-3,-1.847549E-2,-4.16209E-3,7.1625053E-3,-4.880647E-3],"categories":[],"categories_nodes":[],"categories_segments":[],"categories_sizes":[],"default_left":[0,0,0,0,0,0,0,0,0,0,0,0,0,0,0,0,0,0,0,0,0,0,0,0,0,0,0,0,0],"id":43,"left_children":[1,3,5,7,9,11,13,15,-1,17,19,21,23,25,27,-1,-1,-1,-1,-1,-1,-1,-1,-1,-1,-1,-1,-1,-1],"loss_changes":[6.439522E-1,1.8349439E-1,2.0226729E-1,8.966099E-2,1.2117058E-1,8.669033E-2,2.9446453E-1,3.6423765E-2,0E0,1.0123527E-1,2.7297202E-1,1.1742136E-1,4.5666404E-2,1.9117296E-2,4.1427478E-1,0E0,0E0,0E0,0E0,0E0,0E0,0E0,0E0,0E0,0E0,0E0,0E0,0E0,0E0],"parents":[2147483647,0,0,1,1,2,2,3,3,4,4,5,5,6,6,7,7,9,9,10,10,11,11,12,12,13,13,14,14],"right_children":[2,4,6,8,10,12,14,16,-1,18,20,22,24,26,28,-1,-1,-1,-1,-1,-1,-1,-1,-1,-1,-1,-1,-1,-1],"split_conditions":[1.3365872E0,-2.8329337E0,-1.3715243E0,1.4605253E0,3.842705E-1,-4.2636666E-1,-1.0384754E0,-7.716371E-2,-1.1170856E-2,-5.201611E-1,-4.4208527E-1,-3.6408696E-1,-3.2032638E0,2.0483258E0,-6.9394636E-1,2.969049E-3,-3.4565073E-3,-4.0126927E-4,1.7991023E-3,5.122144E-3,-1.1696176E-3,-9.303918E-3,9.0719864E-4,-3.8838547E-3,4.7804373E-3,-1.847549E-2,-4.16209E-3,7.1625053E-3,-4.880647E-3],"split_indices":[0,1,1,4,0,7,1,7,0,1,1,5,1,0,1,0,0,0,0,0,0,0,0,0,0,0,0,0,0],"split_type":[0,0,0,0,0,0,0,0,0,0,0,0,0,0,0,0,0,0,0,0,0,0,0,0,0,0,0,0,0],"sum_hessian":[6.26E2,5.17E2,1.09E2,1.4E1,5.03E2,2.3E1,8.6E1,1.1E1,3E0,3.6E2,1.43E2,1.2E1,1.1E1,4E0,8.2E1,2E0,9E0,6.3E1,2.97E2,1.9E1,1.24E2,3E0,9E0,1E0,1E1,3E0,1E0,7E0,7.5E1],"tree_param":{"num_deleted":"0","num_feature":"9","num_nodes":"29","size_leaf_vector":"1"}},{"base_weights":[-4.213144E-3,1.2162018E-2,-7.275687E-2,-1.08195245E-1,1.6190553E-2,-8.6033694E-2,7.79085E-2,-3.5152934E-2,-1.5926696E-2,-1.1819137E-2,2.5170924E-2,-1.1402564E-1,-5.0002053E-2,4.2095105E-3,5.3432735E-4,-9.683105E-3,6.4189034E-3,2.368969E-3,-2.949806E-3,2.150025E-3,3.9414244E-4,-3.9392333E-3,-8.180221E-3,-3.2276378E-3,4.547734E-3],"categories":[],"categories_nodes":[],"categories_segments":[],"categories_sizes":[],"default_left":[0,0,1,0,0,0,0,0,0,0,0,0,1,0,0,0,0,0,0,0,0,0,0,0,0],"id":44,"left_children":[1,3,5,7,9,11,13,15,-1,17,19,21,23,-1,-1,-1,-1,-1,-1,-1,-1,-1,-1,-1,-1],"loss_changes":[6.810681E-1,2.3933484E-1,2.4074447E-1,2.3462057E-1,1.1977778E-1,1.0322684E-1,3.3229887E-3,3.618371E-1,0E0,3.2676086E-1,1.10627055E-1,9.194279E-2,1.0637133E-1,0E0,0E0,0E0,0E0,0E0,0E0,0E0,0E0,0E0,0E0,0E0,0E0],"parents":[2147483647,0,0,1,1,2,2,3,3,4,4,5,5,6,6,7,7,9,9,10,10,11,11,12,12],"right_children":[2,4,6,8,10,12,14,16,-1,18,20,22,24,-1,-1,-1,-1,-1,-1,-1,-1,-1,-1,-1,-1],"split_conditions":[1.3365872E0,-3.1184287E0,8.2997006E-1,-3.1400611E0,-2.6740974E-1,5.475423E-1,2.0483258E0,-4.4719034E-1,-1.5926696E-2,5.475423E-1,-5.2987516E-2,-6.379885E-1,7.8330445E-1,4.2095105E-3,5.3432735E-4,-9.683105E-3,6.4189034E-3,2.368969E-3,-2.949806E-3,2.150025E-3,3.9414244E-4,-3.9392333E-3,-8.180221E-3,-3.2276378E-3,4.547734E-3],"split_indices":[0,2,2,2,2,6,0,7,0,6,7,7,2,0,0,0,0,0,0,0,0,0,0,0,0],"split_type":[0,0,0,0,0,0,0,0,0,0,0,0,0,0,0,0,0,0,0,0,0,0,0,0,0],"sum_hessian":[6.05E2,4.89E2,1.16E2,1.5E1,4.74E2,1.07E2,9E0,1.2E1,3E0,1.15E2,3.59E2,5.9E1,4.8E1,8E0,1E0,6E0,6E0,5.1E1,6.4E1,1.76E2,1.83E2,3.6E1,2.3E1,4.4E1,4E0],"tree_param":{"num_deleted":"0","num_feature":"9","num_nodes":"25","size_leaf_vector":"1"}},{"base_weights":[-1.1262278E-3,1.2527012E-2,-6.51621E-2,-1.0791056E-1,1.610079E-2,-8.090303E-2,4.855453E-2,4.8000883E-2,-2.1718495E-1,-8.0154434E-2,2.0053178E-2,-6.9603115E-2,-2.162444E-1,3.9203716E-3,-8.704192E-2,6.200358E-3,-1.020092E-2,3.5375E-3,-1.3101028E-2,6.0161552E-3,-6.8897004E-3,5.3020534E-3,8.440029E-4,-4.086933E-3,3.3260235E-3,-6.2545564E-4,-1.4761834E-2,-1.2799025E-3,-5.248242E-3],"categories":[],"categories_nodes":[],"categories_segments":[],"categories_sizes":[],"default_left":[0,0,1,0,0,0,0,0,0,0,1,0,0,0,0,0,0,0,0,0,0,0,0,0,0,0,0,0,0],"id":45,"left_children":[1,3,5,7,9,11,13,15,17,19,21,23,25,-1,27,-1,-1,-1,-1,-1,-1,-1,-1,-1,-1,-1,-1,-1,-1],"loss_changes":[5.4725194E-1,2.238327E-1,2.0082885E-1,2.6598197E-1,1.9258726E-1,1.332953E-1,6.349601E-2,1.5938506E-1,1.3472569E-1,2.4768862E-1,1.2999652E-1,1.5576324E-1,1.0896146E-1,0E0,6.1686337E-4,0E0,0E0,0E0,0E0,0E0,0E0,0E0,0E0,0E0,0E0,0E0,0E0,0E0,0E0],"parents":[2147483647,0,0,1,1,2,2,3,3,4,4,5,5,6,6,7,7,8,8,9,9,10,10,11,11,12,12,14,14],"right_children":[2,4,6,8,10,12,14,16,18,20,22,24,26,-1,28,-1,-1,-1,-1,-1,-1,-1,-1,-1,-1,-1,-1,-1,-1],"split_conditions":[1.3365872E0,-3.1184287E0,7.871705E-1,-4.4208527E-1,-2.430914E0,7.19991E-1,8.1763726E-1,-3.1400611E0,3.842705E-1,-5.1920123E-2,-2.1071198E0,6.5121186E-1,-2.1369991E0,3.9203716E-3,2.0483258E0,6.200358E-3,-1.020092E-2,3.5375E-3,-1.3101028E-2,6.0161552E-3,-6.8897004E-3,5.3020534E-3,8.440029E-4,-4.086933E-3,3.3260235E-3,-6.2545564E-4,-1.4761834E-2,-1.2799025E-3,-5.248242E-3],"split_indices":[0,2,2,1,1,2,4,2,0,7,2,2,1,0,0,0,0,0,0,0,0,0,0,0,0,0,0,0,0],"split_type":[0,0,0,0,0,0,0,0,0,0,0,0,0,0,0,0,0,0,0,0,0,0,0,0,0,0,0,0,0],"sum_hessian":[6.24E2,5.15E2,1.09E2,1.4E1,5.01E2,9.6E1,1.3E1,6E0,8E0,1.9E1,4.82E2,9E1,6E0,1.1E1,2E0,5E0,1E0,1E0,7E0,4E0,1.5E1,1.6E1,4.66E2,8.3E1,7E0,2E0,4E0,1E0,1E0],"tree_param":{"num_deleted":"0","num_feature":"9","num_nodes":"29","size_leaf_vector":"1"}},{"base_weights":[-1.0036078E-3,9.440402E-3,-7.1391575E-2,-2.3823632E-2,1.8966923E-2,1.04177175E-2,-8.176243E-2,-1.2319818E-1,-7.661452E-3,-2.6820142E-2,2.4459654E-2,5.056396E-2,-5.0055753E-3,-7.877289E-3,-7.3755525E-2,-1.134402E-2,5.2349647E-3,3.7372773E-4,-5.8258544E-3,-5.37868E-3,2.5843044E-3,2.2779636E-3,3.016367E-4,3.173748E-3,-9.953261E-4,5.2828104E-3,-3.903737E-3],"categories":[],"categories_nodes":[],"categories_segments":[],"categories_sizes":[],"default_left":[0,0,0,0,0,0,0,0,0,0,0,0,0,0,0,0,0,0,0,0,0,0,0,0,0,0,0],"id":46,"left_children":[1,3,5,7,9,11,13,15,17,19,21,23,-1,-1,25,-1,-1,-1,-1,-1,-1,-1,-1,-1,-1,-1,-1],"loss_changes":[4.60867E-1,1.734741E-1,6.957477E-2,1.9500145E-1,1.0754183E-1,4.9435362E-2,3.2068998E-2,4.2544577E-1,1.755207E-1,2.9718393E-1,1.4746952E-1,8.542322E-3,0E0,0E0,6.0168535E-2,0E0,0E0,0E0,0E0,0E0,0E0,0E0,0E0,0E0,0E0,0E0,0E0],"parents":[2147483647,0,0,1,1,2,2,3,3,4,4,5,5,6,6,7,7,8,8,9,9,10,10,11,11,14,14],"right_children":[2,4,6,8,10,12,14,16,18,20,22,24,-1,-1,26,-1,-1,-1,-1,-1,-1,-1,-1,-1,-1,-1,-1],"split_conditions":[2.0483258E0,-3.5424006E-1,-1.7967577E0,-3.6408696E-1,-6.207507E-1,-2.901562E-1,-3.973252E-1,8.1763726E-1,-4.893795E-1,3.912832E-1,-5.481279E-2,-2.721836E-1,-5.0055753E-3,-7.877289E-3,-3.3322808E-1,-1.134402E-2,5.2349647E-3,3.7372773E-4,-5.8258544E-3,-5.37868E-3,2.5843044E-3,2.2779636E-3,3.016367E-4,3.173748E-3,-9.953261E-4,5.2828104E-3,-3.903737E-3],"split_indices":[0,2,1,5,7,7,1,4,2,4,7,2,0,0,1,0,0,0,0,0,0,0,0,0,0,0,0],"split_type":[0,0,0,0,0,0,0,0,0,0,0,0,0,0,0,0,0,0,0,0,0,0,0,0,0,0,0],"sum_hessian":[6.25E2,5.45E2,8E1,1.21E2,4.24E2,9E0,7.1E1,1.6E1,1.05E2,4.5E1,3.79E2,7E0,2E0,5E0,6.6E1,1.1E1,5E0,9.3E1,1.2E1,2.2E1,2.3E1,1.76E2,2.03E2,6E0,1E0,1E0,6.5E1],"tree_param":{"num_deleted":"0","num_feature":"9","num_nodes":"27","size_leaf_vector":"1"}},{"base_weights":[-2.8550702E-3,-4.7584962E-2,8.559548E-3,-8.540323E-2,7.8757E-3,-3.129727E-2,1.6919272E-2,1.2143729E-1,-1.01912364E-1,-3.1033032E-2,1.0591944E-1,-1.6229886E-1,-1.3877619E-2,-1.4603466E-2,2.4628762E-2,7.881395E-3,-1.4878932E-3,-2.9033707E-3,-9.176453E-3,-6.092877E-4,-1.2342801E-2,9.67046E-3,3.8790926E-3,9.032534E-3,-1.1023833E-2,9.324946E-4,-5.7076844E-3,2.3360774E-3,-3.2350868E-3,4.3679345E-3,1.0885824E-3],"categories":[],"categories_nodes":[],"categories_segments":[],"categories_sizes":[],"default_left":[0,0,1,0,0,0,0,0,0,0,0,0,0,0,0,0,0,0,0,0,0,0,0,0,0,0,0,0,0,0,0],"id":47,"left_children":[1,3,5,7,9,11,13,15,17,19,21,23,25,27,29,-1,-1,-1,-1,-1,-1,-1,-1,-1,-1,-1,-1,-1,-1,-1,-1],"loss_changes":[3.16453E-1,2.6494828E-1,1.6512637E-1,2.6848286E-1,2.016544E-1,1.9399986E-1,9.975658E-2,3.7521727E-2,2.3983651E-1,1.5156356E-1,2.2183672E-2,2.3934978E-1,2.5328222E-1,2.518774E-1,5.7063594E-2,0E0,0E0,0E0,0E0,0E0,0E0,0E0,0E0,0E0,0E0,0E0,0E0,0E0,0E0,0E0,0E0],"parents":[2147483647,0,0,1,1,2,2,3,3,4,4,5,5,6,6,7,7,8,8,9,9,10,10,11,11,12,12,13,13,14,14],"right_children":[2,4,6,8,10,12,14,16,18,20,22,24,26,28,30,-1,-1,-1,-1,-1,-1,-1,-1,-1,-1,-1,-1,-1,-1,-1,-1],"split_conditions":[-6.122551E-1,3.912832E-1,-5.913271E-1,-9.330935E-1,4.6668887E-1,-5.326599E-1,-5.201611E-1,9.207011E-1,4.231364E-1,3.4130326E-1,-9.696975E-1,-2.3772033E-1,1.1659939E0,-4.1519567E-2,-5.498452E-1,7.881395E-3,-1.4878932E-3,-2.9033707E-3,-9.176453E-3,-6.092877E-4,-1.2342801E-2,9.67046E-3,3.8790926E-3,9.032534E-3,-1.1023833E-2,9.324946E-4,-5.7076844E-3,2.3360774E-3,-3.2350868E-3,4.3679345E-3,1.0885824E-3],"split_indices":[7,4,2,4,2,7,1,1,5,2,1,1,4,7,7,0,0,0,0,0,0,0,0,0,0,0,0,0,0,0,0],"split_type":[0,0,0,0,0,0,0,0,0,0,0,0,0,0,0,0,0,0,0,0,0,0,0,0,0,0,0,0,0,0,0],"sum_hessian":[6.18E2,1.25E2,4.93E2,7.4E1,5.1E1,8.5E1,4.08E2,5E0,6.9E1,3.7E1,1.4E1,9E0,7.6E1,8E1,3.28E2,4E0,1E0,4.6E1,2.3E1,3.5E1,2E0,2E0,1.2E1,1E0,8E0,5.8E1,1.8E1,3.6E1,4.4E1,1.3E1,3.15E2],"tree_param":{"num_deleted":"0","num_feature":"9","num_nodes":"31","size_leaf_vector":"1"}},{"base_weights":[-8.82432E-4,-3.874013E-2,1.1711285E-2,1.08587235E-1,-4.9802095E-2,-1.5722798E-2,2.1331165E-2,8.88689E-3,6.0438555E-2,-6.825232E-2,5.4776505E-2,7.962475E-4,-1.2314636E-1,-9.667198E-2,2.5188275E-2,2.953525E-4,3.8815606E-3,-1.2106318E-3,-5.5947537E-3,5.4831044E-3,-5.039179E-4,8.6118386E-4,-4.582891E-3,-1.46763995E-2,4.2177094E-4,-8.098644E-3,2.9048913E-3,4.7017834E-3,1.0811312E-3],"categories":[],"categories_nodes":[],"categories_segments":[],"categories_sizes":[],"default_left":[0,0,0,0,0,0,0,0,0,0,0,0,0,0,0,0,0,0,0,0,0,0,0,0,0,0,0,0,0],"id":48,"left_children":[1,3,5,7,9,11,13,-1,15,17,19,21,23,25,27,-1,-1,-1,-1,-1,-1,-1,-1,-1,-1,-1,-1,-1,-1],"loss_changes":[2.9223642E-1,2.547566E-1,1.21735185E-1,2.5882378E-2,2.7965686E-1,2.1304223E-1,1.5764153E-1,0E0,7.0417635E-3,2.317763E-1,7.9416335E-2,1.6105083E-1,3.611819E-1,1.20582975E-1,7.9222545E-2,0E0,0E0,0E0,0E0,0E0,0E0,0E0,0E0,0E0,0E0,0E0,0E0,0E0,0E0],"parents":[2147483647,0,0,1,1,2,2,3,3,4,4,5,5,6,6,8,8,9,9,10,10,11,11,12,12,13,13,14,14],"right_children":[2,4,6,8,10,12,14,-1,16,18,20,22,24,26,28,-1,-1,-1,-1,-1,-1,-1,-1,-1,-1,-1,-1,-1,-1],"split_conditions":[-5.326599E-1,-9.330935E-1,-4.3649632E-1,4.5066923E-1,6.1427563E-1,-5.9544736E-1,-1.7476386E0,8.88689E-3,-7.172392E-1,-7.991677E-1,6.887941E-1,1.4605253E0,-1.5838276E-1,2.9096267E-1,-1.0176123E0,2.953525E-4,3.8815606E-3,-1.2106318E-3,-5.5947537E-3,5.4831044E-3,-5.039179E-4,8.6118386E-4,-4.582891E-3,-1.46763995E-2,4.2177094E-4,-8.098644E-3,2.9048913E-3,4.7017834E-3,1.0811312E-3],"split_indices":[7,4,1,1,2,1,2,0,6,7,2,4,4,1,2,0,0,0,0,0,0,0,0,0,0,0,0,0,0],"split_type":[0,0,0,0,0,0,0,0,0,0,0,0,0,0,0,0,0,0,0,0,0,0,0,0,0,0,0,0,0],"sum_hessian":[6.11E2,1.52E2,4.59E2,1E1,1.42E2,1.19E2,3.4E2,3E0,7E0,1.21E2,2.1E1,1.04E2,1.5E1,1E1,3.3E2,2E0,5E0,6.1E1,6E1,1.1E1,1E1,8.9E1,1.5E1,6E0,9E0,7E0,3E0,1.5E1,3.15E2],"tree_param":{"num_deleted":"0","num_feature":"9","num_nodes":"29","size_leaf_vector":"1"}},{"base_weights":[1.8378731E-6,1.3335282E-2,-5.834624E-2,-9.236952E-2,1.6711421E-2,-7.109804E-2,7.099817E-2,-2.4040973E-2,-1.4567248E-2,9.610254E-2,1.4380457E-2,-6.2036924E-2,-2.4353743E-1,7.727195E-2,2.0650924E-4,-8.349881E-3,6.117505E-3,5.7580993E-3,-3.791754E-3,-1.5807267E-3,1.0795586E-3,-4.612539E-3,-1.5315025E-3,-4.355823E-3,-1.5938962E-2,4.0515154E-3,1.086168E-3],"categories":[],"categories_nodes":[],"categories_segments":[],"categories_sizes":[],"default_left":[0,0,1,0,1,0,0,0,0,0,0,0,0,0,0,0,0,0,0,0,0,0,0,0,0,0,0],"id":49,"left_children":[1,3,5,7,9,11,13,15,-1,17,19,21,23,25,-1,-1,-1,-1,-1,-1,-1,-1,-1,-1,-1,-1,-1],"loss_changes":[4.8935005E-1,1.8426323E-1,1.9802454E-1,2.1052699E-1,9.05918E-2,1.5207845E-1,4.2955168E-3,2.924907E-1,0E0,5.4611802E-2,1.6120444E-1,9.491345E-2,3.1076103E-2,3.274642E-4,0E0,0E0,0E0,0E0,0E0,0E0,0E0,0E0,0E0,0E0,0E0,0E0,0E0],"parents":[2147483647,0,0,1,1,2,2,3,3,4,4,5,5,6,6,7,7,9,9,10,10,11,11,12,12,13,13],"right_children":[2,4,6,8,10,12,14,16,-1,18,20,22,24,26,-1,-1,-1,-1,-1,-1,-1,-1,-1,-1,-1,-1,-1],"split_conditions":[1.3365872E0,-3.1184287E0,8.2997006E-1,-3.1400611E0,-2.4316375E0,-2.756663E-1,2.0483258E0,-4.4719034E-1,-1.4567248E-2,9.5471096E-1,-7.0117104E-1,5.475423E-1,-7.0117104E-1,4.231364E-1,2.0650924E-4,-8.349881E-3,6.117505E-3,5.7580993E-3,-3.791754E-3,-1.5807267E-3,1.0795586E-3,-4.612539E-3,-1.5315025E-3,-4.355823E-3,-1.5938962E-2,4.0515154E-3,1.086168E-3],"split_indices":[0,2,2,2,2,7,0,7,0,6,2,6,2,5,0,0,0,0,0,0,0,0,0,0,0,0,0],"split_type":[0,0,0,0,0,0,0,0,0,0,0,0,0,0,0,0,0,0,0,0,0,0,0,0,0,0,0],"sum_hessian":[6.27E2,5.11E2,1.16E2,1.5E1,4.96E2,1.06E2,1E1,1.2E1,3E0,1.3E1,4.83E2,1.02E2,4E0,9E0,1E0,6E0,6E0,1.2E1,1E0,6.5E1,4.18E2,5.1E1,5.1E1,2E0,2E0,8E0,1E0],"tree_param":{"num_deleted":"0","num_feature":"9","num_nodes":"27","size_leaf_vector":"1"}},{"base_weights":[5.825956E-4,1.2729193E-2,-5.2332096E-2,-8.833626E-2,1.5527969E-2,2.1124857E-2,-7.332128E-2,-1.0457241E-2,-1.4020974E-2,-6.437294E-2,1.778839E-2,-5.5072956E-2,1.0742042E-1,-2.8961667E-1,-6.019858E-2,-9.347752E-3,5.855325E-3,2.5638482E-3,-4.3960507E-3,3.849687E-3,6.8711006E-4,-8.278435E-3,8.36589E-4,9.599487E-3,3.1425324E-3,-1.6248858E-2,-3.704369E-3,5.334187E-3,-3.6855252E-3],"categories":[],"categories_nodes":[],"categories_segments":[],"categories_sizes":[],"default_left":[0,0,0,0,0,1,0,0,0,0,1,0,0,0,0,0,0,0,0,0,0,0,0,0,0,0,0,0,0],"id":50,"left_children":[1,3,5,7,9,11,13,15,-1,17,19,21,23,25,27,-1,-1,-1,-1,-1,-1,-1,-1,-1,-1,-1,-1,-1,-1],"loss_changes":[4.0623096E-1,1.4676154E-1,1.8348148E-1,2.0649712E-1,9.16305E-2,1.8345535E-1,2.4369654E-1,2.6955557E-1,0E0,4.2634968E-2,1.1584525E-1,1.2178202E-1,3.6933377E-2,1.4029384E-2,2.0629501E-1,0E0,0E0,0E0,0E0,0E0,0E0,0E0,0E0,0E0,0E0,0E0,0E0,0E0,0E0],"parents":[2147483647,0,0,1,1,2,2,3,3,4,4,5,5,6,6,7,7,9,9,10,10,11,11,12,12,13,13,14,14],"right_children":[2,4,6,8,10,12,14,16,-1,18,20,22,24,26,28,-1,-1,-1,-1,-1,-1,-1,-1,-1,-1,-1,-1,-1,-1],"split_conditions":[1.3365872E0,-3.1184287E0,-1.3715243E0,-3.1400611E0,-2.8329337E0,3.3052453E-1,-1.0384754E0,-4.4719034E-1,-1.4020974E-2,-7.716371E-2,-1.4383731E0,2.0483258E0,-5.5442065E-1,2.0483258E0,-6.9394636E-1,-9.347752E-3,5.855325E-3,2.5638482E-3,-4.3960507E-3,3.849687E-3,6.8711006E-4,-8.278435E-3,8.36589E-4,9.599487E-3,3.1425324E-3,-1.6248858E-2,-3.704369E-3,5.334187E-3,-3.6855252E-3],"split_indices":[0,2,1,2,1,2,1,7,0,7,2,0,7,0,1,0,0,0,0,0,0,0,0,0,0,0,0,0,0],"split_type":[0,0,0,0,0,0,0,0,0,0,0,0,0,0,0,0,0,0,0,0,0,0,0,0,0,0,0,0,0],"sum_hessian":[6.3E2,5.13E2,1.17E2,1.3E1,5E2,2.6E1,9.1E1,1E1,3E0,1.3E1,4.87E2,1.4E1,1.2E1,4E0,8.7E1,4E0,6E0,2E0,1.1E1,3E1,4.57E2,5E0,9E0,3E0,9E0,3E0,1E0,6E0,8.1E1],"tree_param":{"num_deleted":"0","num_feature":"9","num_nodes":"29","size_leaf_vector":"1"}},{"base_weights":[-5.085154E-4,1.1187566E-2,-5.2726034E-2,-7.340636E-2,1.3728417E-2,-6.2222764E-2,6.498278E-2,-1.7900331E-3,-1.3495187E-2,7.9658635E-2,9.151919E-3,1.2160317E-2,-7.5581536E-2,7.1638204E-2,2.9348434E-4,-6.7174505E-3,5.604383E-3,-5.690772E-4,5.2802577E-3,-2.9184774E-3,8.3610753E-4,-1.5064762E-3,5.984092E-3,-1.2329298E-2,-2.9094282E-3,1.4664839E-3,4.0426385E-3],"categories":[],"categories_nodes":[],"categories_segments":[],"categories_sizes":[],"default_left":[0,0,1,0,1,0,0,0,0,0,0,1,0,0,0,0,0,0,0,0,0,0,0,0,0,0,0],"id":51,"left_children":[1,3,5,7,9,11,13,15,-1,17,19,21,23,25,-1,-1,-1,-1,-1,-1,-1,-1,-1,-1,-1,-1,-1],"loss_changes":[3.8047037E-1,1.1041249E-1,1.3147816E-1,2.1060319E-1,1.486271E-1,1.0624775E-1,3.1203106E-3,1.9620499E-1,0E0,7.679154E-2,2.3815113E-1,8.090612E-2,2.533363E-1,7.474534E-4,0E0,0E0,0E0,0E0,0E0,0E0,0E0,0E0,0E0,0E0,0E0,0E0,0E0],"parents":[2147483647,0,0,1,1,2,2,3,3,4,4,5,5,6,6,7,7,9,9,10,10,11,11,12,12,13,13],"right_children":[2,4,6,8,10,12,14,16,-1,18,20,22,24,26,-1,-1,-1,-1,-1,-1,-1,-1,-1,-1,-1,-1,-1],"split_conditions":[1.3365872E0,-3.1184287E0,8.2997006E-1,-3.1400611E0,-1.4383731E0,-2.0948803E0,2.0483258E0,-4.4850105E-1,-1.3495187E-2,-1.5838276E-1,-7.0117104E-1,3.3052453E-1,-1.0384754E0,-1.7967577E0,2.9348434E-4,-6.7174505E-3,5.604383E-3,-5.690772E-4,5.2802577E-3,-2.9184774E-3,8.3610753E-4,-1.5064762E-3,5.984092E-3,-1.2329298E-2,-2.9094282E-3,1.4664839E-3,4.0426385E-3],"split_indices":[0,2,2,2,2,1,0,7,0,4,2,2,1,1,0,0,0,0,0,0,0,0,0,0,0,0,0],"split_type":[0,0,0,0,0,0,0,0,0,0,0,0,0,0,0,0,0,0,0,0,0,0,0,0,0,0,0],"sum_hessian":[6.21E2,5.08E2,1.13E2,1.4E1,4.94E2,1.05E2,8E0,1.1E1,3E0,3.1E1,4.63E2,1.6E1,8.9E1,7E0,1E0,5E0,6E0,7E0,2.4E1,4.6E1,4.17E2,1.2E1,4E0,7E0,8.2E1,2E0,5E0],"tree_param":{"num_deleted":"0","num_feature":"9","num_nodes":"27","size_leaf_vector":"1"}},{"base_weights":[-2.4708053E-3,5.4540494E-3,-5.6408796E-2,-6.1245672E-2,1.0789791E-2,-4.863421E-2,-5.966448E-3,-1.2131009E-1,2.715384E-2,-1.4323044E-3,3.0674316E-2,-5.440836E-2,6.312843E-2,-7.134456E-3,3.7953097E-3,7.511159E-3,-1.1134639E-3,-9.702823E-4,1.7704733E-3,-4.730248E-3,1.907993E-3,2.2386916E-3,-2.9797517E-3,6.955475E-4,5.2695214E-3],"categories":[],"categories_nodes":[],"categories_segments":[],"categories_sizes":[],"default_left":[0,0,0,0,0,0,0,0,0,0,0,0,0,0,0,0,0,0,0,0,0,0,0,0,0],"id":52,"left_children":[1,3,5,7,9,11,-1,13,15,17,19,21,23,-1,-1,-1,-1,-1,-1,-1,-1,-1,-1,-1,-1],"loss_changes":[2.636173E-1,1.9213098E-1,3.2841623E-2,2.1568063E-1,1.21316195E-1,4.989879E-2,0E0,1.1202207E-1,1.0674736E-1,2.0595975E-1,1.8178894E-1,3.8163647E-2,6.854037E-3,0E0,0E0,0E0,0E0,0E0,0E0,0E0,0E0,0E0,0E0,0E0,0E0],"parents":[2147483647,0,0,1,1,2,2,3,3,4,4,5,5,7,7,8,8,9,9,10,10,11,11,12,12],"right_children":[2,4,6,8,10,12,-1,14,16,18,20,22,24,-1,-1,-1,-1,-1,-1,-1,-1,-1,-1,-1,-1],"split_conditions":[2.0483258E0,-1.7967577E0,-2.901562E-1,3.1922036E-1,7.194204E-1,6.80022E-1,-5.966448E-3,1.3002533E-1,5.0908256E-1,8.1763726E-1,-2.7672043E0,-2.99846E0,-3.6688069E-1,-7.134456E-3,3.7953097E-3,7.511159E-3,-1.1134639E-3,-9.702823E-4,1.7704733E-3,-4.730248E-3,1.907993E-3,2.2386916E-3,-2.9797517E-3,6.955475E-4,5.2695214E-3],"split_indices":[0,1,7,2,3,2,0,7,2,4,2,1,1,0,0,0,0,0,0,0,0,0,0,0,0],"split_type":[0,0,0,0,0,0,0,0,0,0,0,0,0,0,0,0,0,0,0,0,0,0,0,0,0],"sum_hessian":[6.15E2,5.37E2,7.8E1,3.9E1,4.98E2,7.1E1,7E0,2.3E1,1.6E1,3.09E2,1.89E2,6.8E1,3E0,2.1E1,2E0,4E0,1.2E1,2.08E2,1.01E2,1E1,1.79E2,3E0,6.5E1,2E0,1E0],"tree_param":{"num_deleted":"0","num_feature":"9","num_nodes":"25","size_leaf_vector":"1"}},{"base_weights":[-3.6726934E-3,7.010721E-3,-4.958077E-2,-2.5510801E-2,1.6716879E-2,-5.7222676E-2,3.2279354E-3,7.4964695E-2,-3.9621484E-2,3.154055E-2,2.4652472E-3,1.3574423E-2,-6.9040485E-2,5.4488447E-3,-1.0030153E-2,-8.822481E-3,-2.675374E-4,-1.6281607E-3,1.9322931E-3,-3.605847E-3,7.3701754E-4,-1.2727396E-3,5.616775E-3,-9.384657E-3,-2.662243E-3],"categories":[],"categories_nodes":[],"categories_segments":[],"categories_sizes":[],"default_left":[0,0,1,0,0,0,0,0,0,0,0,1,0,0,0,0,0,0,0,0,0,0,0,0,0],"id":53,"left_children":[1,3,5,7,9,11,-1,13,15,17,19,21,23,-1,-1,-1,-1,-1,-1,-1,-1,-1,-1,-1,-1],"loss_changes":[3.1178656E-1,1.633065E-1,1.0836333E-1,1.7168577E-1,8.400432E-2,9.548053E-2,0E0,1.6245109E-1,4.91422E-1,9.007648E-2,1.8782587E-1,6.838712E-2,1.7180306E-1,0E0,0E0,0E0,0E0,0E0,0E0,0E0,0E0,0E0,0E0,0E0,0E0],"parents":[2147483647,0,0,1,1,2,2,3,3,4,4,5,5,7,7,8,8,9,9,10,10,11,11,12,12],"right_children":[2,4,6,8,10,12,-1,14,16,18,20,22,24,-1,-1,-1,-1,-1,-1,-1,-1,-1,-1,-1,-1],"split_conditions":[1.3365872E0,-3.5424006E-1,8.339495E-1,-7.0414484E-1,-5.2987516E-2,-2.0948803E0,3.2279354E-3,-5.565589E-1,-5.326599E-1,-9.136671E-1,-1.2782897E-2,3.3052453E-1,-1.0384754E0,5.4488447E-3,-1.0030153E-2,-8.822481E-3,-2.675374E-4,-1.6281607E-3,1.9322931E-3,-3.605847E-3,7.3701754E-4,-1.2727396E-3,5.616775E-3,-9.384657E-3,-2.662243E-3],"split_indices":[0,2,2,8,7,1,0,2,7,8,8,2,1,0,0,0,0,0,0,0,0,0,0,0,0],"split_type":[0,0,0,0,0,0,0,0,0,0,0,0,0,0,0,0,0,0,0,0,0,0,0,0,0],"sum_hessian":[6.34E2,5.15E2,1.19E2,1.18E2,3.97E2,1.12E2,7E0,1.4E1,1.04E2,1.94E2,2.03E2,1.6E1,9.6E1,1.3E1,1E0,2E1,8.4E1,1.9E1,1.75E2,2.8E1,1.75E2,1.2E1,4E0,1E1,8.6E1],"tree_param":{"num_deleted":"0","num_feature":"9","num_nodes":"25","size_leaf_vector":"1"}},{"base_weights":[-2.1465149E-4,9.093784E-3,-4.2100728E-2,-7.716427E-2,1.1846866E-2,4.6029245E-3,-6.740815E-2,4.908201E-2,-1.5782024E-1,6.816677E-2,7.962319E-3,-2.4130449E-2,9.608942E-2,-5.926479E-2,-1.6546832E-2,5.8041345E-3,-8.823051E-3,-1.0413941E-2,1.4671356E-3,5.6347963E-3,-2.053349E-3,-5.766223E-3,6.2959193E-4,7.085085E-4,-1.4788866E-2,1.0584333E-2,-3.0922566E-3,-2.6262954E-3,-9.94984E-3],"categories":[],"categories_nodes":[],"categories_segments":[],"categories_sizes":[],"default_left":[0,0,0,0,1,0,0,0,0,0,0,0,0,0,0,0,0,0,0,0,0,0,0,0,0,0,0,0,0],"id":54,"left_children":[1,3,5,7,9,11,13,15,17,19,21,23,25,27,-1,-1,-1,-1,-1,-1,-1,-1,-1,-1,-1,-1,-1,-1,-1],"loss_changes":[2.4445641E-1,1.2273911E-1,1.3505247E-1,1.7066638E-1,1.08408354E-1,1.1009602E-1,1.3919163E-1,1.2626483E-1,1.0055123E-1,1.6027886E-1,2.679963E-1,3.3712697E-1,1.9565976E-1,5.8287084E-2,0E0,0E0,0E0,0E0,0E0,0E0,0E0,0E0,0E0,0E0,0E0,0E0,0E0,0E0,0E0],"parents":[2147483647,0,0,1,1,2,2,3,3,4,4,5,5,6,6,7,7,8,8,9,9,10,10,11,11,12,12,13,13],"right_children":[2,4,6,8,10,12,14,16,18,20,22,24,26,28,-1,-1,-1,-1,-1,-1,-1,-1,-1,-1,-1,-1,-1,-1,-1],"split_conditions":[1.3365872E0,-3.1184287E0,-6.9394636E-1,-4.4208527E-1,-1.4383731E0,-1.0384754E0,3.5666585E-1,-3.1400611E0,-8.179566E-2,2.1480682E-1,-1.2566209E0,-1.2450306E0,7.081081E-1,1.4149206E0,-1.6546832E-2,5.8041345E-3,-8.823051E-3,-1.0413941E-2,1.4671356E-3,5.6347963E-3,-2.053349E-3,-5.766223E-3,6.2959193E-4,7.085085E-4,-1.4788866E-2,1.0584333E-2,-3.0922566E-3,-2.6262954E-3,-9.94984E-3],"split_indices":[0,2,1,1,2,1,7,2,7,1,2,1,2,5,